{"schema":"basileus-neural-model","version":1,"savedAt":"2026-05-14T08:43:55.775Z","metadata":{"episodes":1000,"falls":638,"survivals":362,"truncated":0,"transitions":141623,"rounds":6596,"playerCounts":{"3":345,"4":315,"5":340},"roundLengths":{"6":128,"7":139,"8":157,"9":138,"10":151,"11":142,"12":145},"actionStats":{"total":267286,"byKind":{"court":203866,"court-confirm":26360,"orders":26360,"title-assignment":4373,"reward":6327},"byPhase":{"court":230226,"orders":26360,"resolution":10700},"courtActions":{"appoint-bishop":13329,"buy":56486,"basileus-appoint":22301,"appoint-strategos":27974,"dismiss":14291,"recruit":21826,"revoke":29245,"hire-mercenaries":5757,"gift":12657},"rewardChoices":{"gold":3969,"empire":2358},"orderDeployments":{"frontier":77022,"capital":63637},"titleAssignments":4373,"confirmations":26360},"policyMix":{"learner":2220,"random":1158,"heuristic":0,"checkpoint":617,"custom":0},"loss":0.22772338972427447,"averageRounds":6.596,"workers":15,"workersAuto":true,"seedWasSpecified":false,"seedMode":"random-each-episode","modelSeed":3723930484,"playerRange":[3,5],"roundRange":[6,12],"includeDeals":false,"opponentMix":true,"randomOpponentRate":0.3,"heuristicOpponentRate":0,"checkpointOpponentRate":0.2,"trainingEpochs":3,"checkpointInterval":200,"checkpointEvalEpisodes":4,"checkpointDir":"C:\\Users\\antoi\\Desktop\\Basileus\\ai\\checkpoints","promotedCheckpoint":"C:\\Users\\antoi\\Desktop\\Basileus\\ai\\checkpoints\\latest-ep000405.json","promotedCheckpointEpisode":405,"promotedCheckpointScore":1.06140625,"promotedTournament":{"episodes":4,"seed":2221121707,"includeDeals":false,"matchups":{"modelVsRandom":{"weight":1,"episodes":4,"falls":2,"survivals":2,"truncated":0,"averageRounds":7.5,"playerCounts":{"3":1,"4":1,"5":2},"roundLengths":{"6":1,"11":2,"12":1},"rewardByPlayer":{"0":-0.3625,"1":-0.6175,"2":-0.7170833333333334,"3":-0.3,"4":-1},"appearancesByPlayer":{"0":4,"1":4,"2":4,"3":3,"4":2},"winsByPlayer":{"0":1,"3":1},"winRateByPlayer":{"0":0.25,"1":0,"2":0,"3":0.3333333333333333,"4":0},"averagePointsByPlayer":{"0":1.25,"1":2,"2":0.75,"3":2,"4":0},"topScoreRateByPlayer":{"0":0.25,"1":0,"2":0,"3":0.3333333333333333,"4":0},"actionStats":{"total":1250,"byKind":{"court":950,"court-confirm":127,"orders":127,"title-assignment":20,"reward":26},"byPhase":{"court":1077,"orders":127,"resolution":46},"courtActions":{"buy":272,"basileus-appoint":94,"recruit":113,"appoint-strategos":129,"appoint-bishop":48,"dismiss":61,"revoke":141,"hire-mercenaries":28,"gift":64},"rewardChoices":{"gold":17,"empire":9},"orderDeployments":{"frontier":334,"capital":273},"titleAssignments":20,"confirmations":127},"policyMix":{"learner":0,"random":0,"heuristic":0,"checkpoint":0,"custom":17},"fallRate":0.5,"survivalRate":0.5,"truncatedRate":0,"score":-0.2375},"modelVsHeuristic":{"weight":1,"episodes":4,"falls":0,"survivals":4,"truncated":0,"averageRounds":10,"playerCounts":{"3":1,"4":1,"5":2},"roundLengths":{"6":1,"11":2,"12":1},"rewardByPlayer":{"0":1.1,"1":-0.4901041666666668,"2":-0.515625,"3":-0.41250000000000003,"4":-0.5125},"appearancesByPlayer":{"0":4,"1":4,"2":4,"3":3,"4":2},"winsByPlayer":{"0":4},"winRateByPlayer":{"0":1,"1":0,"2":0,"3":0,"4":0},"averagePointsByPlayer":{"0":7.25,"1":0.75,"2":0.5,"3":1.3333333333333333,"4":0},"topScoreRateByPlayer":{"0":1,"1":0,"2":0,"3":0,"4":0},"actionStats":{"total":1646,"byKind":{"court":1217,"court-confirm":177,"orders":177,"title-assignment":26,"reward":49},"byPhase":{"court":1394,"orders":177,"resolution":75},"courtActions":{"buy":284,"basileus-appoint":70,"recruit":512,"hire-mercenaries":173,"appoint-strategos":109,"appoint-bishop":33,"revoke":25,"gift":11},"rewardChoices":{"empire":42,"gold":7},"orderDeployments":{"frontier":1264,"capital":92},"titleAssignments":26,"confirmations":177},"policyMix":{"learner":0,"random":0,"heuristic":0,"checkpoint":0,"custom":17},"fallRate":0,"survivalRate":1,"truncatedRate":0,"score":2.6},"selfPlay":{"weight":0.5,"episodes":4,"falls":0,"survivals":4,"truncated":0,"averageRounds":10,"playerCounts":{"3":1,"4":1,"5":2},"roundLengths":{"6":1,"11":2,"12":1},"rewardByPlayer":{"0":-0.018333333333333368,"1":-0.06625000000000003,"2":0.013541666666666619,"3":-0.388888888888889,"4":1.1},"appearancesByPlayer":{"0":4,"1":4,"2":4,"3":3,"4":2},"winsByPlayer":{"0":1,"1":1,"2":1,"4":2},"winRateByPlayer":{"0":0.25,"1":0.25,"2":0.25,"3":0,"4":1},"averagePointsByPlayer":{"0":2,"1":1.5,"2":2.5,"3":1.3333333333333333,"4":3.5},"topScoreRateByPlayer":{"0":0.25,"1":0.25,"2":0.25,"3":0,"4":1},"actionStats":{"total":1540,"byKind":{"court":1076,"court-confirm":177,"orders":177,"title-assignment":27,"reward":83},"byPhase":{"court":1253,"orders":177,"resolution":110},"courtActions":{"buy":555,"basileus-appoint":24,"recruit":130,"appoint-strategos":65,"appoint-bishop":66,"gift":89,"revoke":63,"hire-mercenaries":84},"rewardChoices":{"empire":3,"gold":80},"orderDeployments":{"frontier":312,"capital":87},"titleAssignments":27,"confirmations":177},"policyMix":{"learner":17,"random":0,"heuristic":0,"checkpoint":0,"custom":0},"fallRate":0,"survivalRate":1,"truncatedRate":0,"score":1.1066666666666667},"modelVsPrevious":{"weight":1,"episodes":4,"falls":0,"survivals":4,"truncated":0,"averageRounds":10,"playerCounts":{"3":1,"4":1,"5":2},"roundLengths":{"6":1,"11":2,"12":1},"rewardByPlayer":{"0":-0.10250000000000001,"1":-0.12291666666666667,"2":-0.2977083333333334,"3":0.11250000000000004,"4":0.3875},"appearancesByPlayer":{"0":4,"1":4,"2":4,"3":3,"4":2},"winsByPlayer":{"0":1,"1":1,"3":1,"4":1},"winRateByPlayer":{"0":0.25,"1":0.25,"2":0,"3":0.3333333333333333,"4":0.5},"averagePointsByPlayer":{"0":1.5,"1":1.25,"2":2.25,"3":2,"4":4.5},"topScoreRateByPlayer":{"0":0.25,"1":0.25,"2":0,"3":0.3333333333333333,"4":0.5},"actionStats":{"total":1483,"byKind":{"court":1018,"court-confirm":177,"orders":177,"title-assignment":23,"reward":88},"byPhase":{"court":1195,"orders":177,"resolution":111},"courtActions":{"buy":531,"basileus-appoint":61,"recruit":103,"appoint-strategos":51,"appoint-bishop":68,"revoke":88,"gift":82,"hire-mercenaries":34},"rewardChoices":{"gold":86,"empire":2},"orderDeployments":{"frontier":401,"capital":110},"titleAssignments":23,"confirmations":177},"policyMix":{"learner":0,"random":0,"heuristic":0,"checkpoint":0,"custom":17},"fallRate":0,"survivalRate":1,"truncatedRate":0,"score":1.0225},"previousVsModel":{"weight":0.5,"episodes":4,"falls":0,"survivals":4,"truncated":0,"averageRounds":10,"playerCounts":{"3":1,"4":1,"5":2},"roundLengths":{"6":1,"11":2,"12":1},"rewardByPlayer":{"0":-0.38541666666666674,"1":-0.038125000000000006,"2":-0.06562500000000004,"3":0.6027777777777777,"4":0.37},"appearancesByPlayer":{"0":4,"1":4,"2":4,"3":3,"4":2},"winsByPlayer":{"1":1,"2":1,"3":2,"4":1},"winRateByPlayer":{"0":0,"1":0.25,"2":0.25,"3":0.6666666666666666,"4":0.5},"averagePointsByPlayer":{"0":1.5,"1":2,"2":1.75,"3":3.3333333333333335,"4":2.5},"topScoreRateByPlayer":{"0":0,"1":0.25,"2":0.25,"3":0.6666666666666666,"4":0.5},"actionStats":{"total":1402,"byKind":{"court":926,"court-confirm":177,"orders":177,"title-assignment":31,"reward":91},"byPhase":{"court":1103,"orders":177,"resolution":122},"courtActions":{"buy":465,"basileus-appoint":28,"recruit":119,"appoint-strategos":45,"appoint-bishop":52,"gift":82,"revoke":55,"hire-mercenaries":80},"rewardChoices":{"gold":87,"empire":4},"orderDeployments":{"frontier":293,"capital":88},"titleAssignments":31,"confirmations":177},"policyMix":{"learner":0,"random":0,"heuristic":0,"checkpoint":0,"custom":17},"fallRate":0,"survivalRate":1,"truncatedRate":0,"score":0.6145833333333333},"randomBaseline":{"weight":0,"episodes":4,"falls":4,"survivals":0,"truncated":0,"averageRounds":4.5,"playerCounts":{"3":1,"4":1,"5":2},"roundLengths":{"6":1,"11":2,"12":1},"rewardByPlayer":{"0":-1,"1":-1,"2":-1,"3":-1,"4":-1},"appearancesByPlayer":{"0":4,"1":4,"2":4,"3":3,"4":2},"winsByPlayer":{},"winRateByPlayer":{"0":0,"1":0,"2":0,"3":0,"4":0},"averagePointsByPlayer":{"0":0,"1":0,"2":0,"3":0,"4":0},"topScoreRateByPlayer":{"0":0,"1":0,"2":0,"3":0,"4":0},"actionStats":{"total":764,"byKind":{"court":590,"court-confirm":77,"orders":77,"reward":14,"title-assignment":6},"byPhase":{"court":667,"orders":77,"resolution":20},"courtActions":{"basileus-appoint":79,"buy":122,"hire-mercenaries":18,"appoint-strategos":102,"dismiss":50,"appoint-bishop":39,"recruit":65,"revoke":84,"gift":31},"rewardChoices":{"empire":6,"gold":8},"orderDeployments":{"frontier":198,"capital":245},"titleAssignments":6,"confirmations":77},"policyMix":{"learner":0,"random":17,"heuristic":0,"checkpoint":0,"custom":0},"fallRate":1,"survivalRate":0,"truncatedRate":0,"score":-2}},"score":1.06140625},"logInterval":1},"network":{"version":1,"inputSize":384,"hiddenSizes":[96,64],"outputSize":2,"step":81,"layers":[{"inputSize":384,"outputSize":96,"activation":"relu","weights":[-0.07079891047743533,0.02588182355392778,0.01907799024501828,0.07346902343402166,0.0828444196282055,-0.18108293723626587,0.0669858242966808,-0.03257693402208753,0.03822087704275817,0.04521844741129329,-0.10352109609824554,-0.05038989174354443,-0.010059595863155002,-0.058477862921163436,0.07866772636182902,-0.10113665595909554,-0.02766367524610383,0.023950185324780028,0.054210361126703396,-0.16245952589161589,0.08539938746571915,-0.050507419553004314,-0.07155186476520005,0.1307711836375337,-0.14181727769319372,-0.012170047451979632,-0.000592406834318425,-0.0773648341151846,0.052986230389618555,-0.03883428361383045,0.056067447379315405,0.023503935671696678,0.030519516707974984,0.051576757186124485,0.07517518992937672,-0.005037030930242278,-0.0357570402044419,-0.006952957436188561,-0.07015393582733642,0.12825200257362232,-0.09914344381661802,-0.03076773258140835,-0.011314572613975192,0.07164447809854241,-0.0018120873096247817,-0.0010857368853026093,-0.1050898822455913,-0.06496229395422803,-0.10326014891360273,0.025601364280062284,0.10384064683179717,-0.09051835764223255,0.09000800663303152,-0.003258966850692505,0.027658942962769745,-0.045093316672771375,-0.033466257155707946,0.018183762767259706,0.01715034734621268,-0.11306507323708319,-0.014337704169927459,-0.02054307366309389,0.032459896938043076,-0.12140890933573505,0.03509580400154753,-0.07345898913923507,-0.1330987518583637,-0.06905256441992255,0.028869202467065435,0.04577045313578657,0.017762677373215012,0.03687296289872899,0.01669780942025573,0.059491977734268696,-0.07174072810279133,0.014223935129617976,0.12012527676408112,-0.04275238133679342,-0.009730395580174946,-0.013333562296845123,0.11709985270765813,0.017850084666702896,-0.04685038299906578,0.004831892432215867,-0.13942087777672688,-0.08451068730564647,0.012480556430200187,-0.03989796027870581,0.01633312619815742,-0.04392128048386715,-0.07807165191211501,-0.005922787275907084,-0.105648122889088,0.07227035538207938,0.008894345387146651,0.0009522780317663864,-0.04762103780439685,-0.03459112119363203,-0.016479445067570198,-0.03988736852270855,0.0018745070719667978,-0.038708697433348885,-0.06499003269848419,-0.08805232599360652,0.09719867257144806,-0.05569633886456146,0.0015748722650877505,-0.023323152965908478,0.0889826422464,0.045670212977583446,-0.07104926611753698,-0.05988438565205,-0.11391264884784222,0.19960038918185913,0.004189653463408726,-0.07938451916452502,0.01914954713000169,0.01414157165794282,0.07536081816513722,-0.044366575223929956,-0.07828879659900574,-0.031502951583599885,0.12250859220138816,0.07928929971121265,0.006041811235592618,0.014004857196108405,0.051204321639787345,0.08670724775884724,-0.03154672754415445,-0.013229008233484118,0.000030365269368185375,0.02890924195959541,-0.15912976743665158,0.07270431649827241,-0.0797928649925579,0.08747743556721728,-0.002625098752048851,0.0020266265525901253,0.031492688927158785,0.04968571436224101,-0.08014273844762443,-0.030587182113927594,0.12432809811108571,-0.11700913031190409,0.03610497581081437,-0.011050902248702973,-0.042966051788598955,0.10609260876763713,-0.11095650790480542,0.0014231815445457153,0.06099057501989777,-0.09408649363730974,0.04581450946378532,0.10766688968288178,-0.025343874665497278,-0.012233239152777426,-0.003072220568619593,0.10952473016018645,-0.09416200908345843,-0.020567302715995425,-0.1040639865289989,-0.029656546539031683,-0.047546972841332094,0.11099885235716005,-0.039098560691027434,-0.09181384595012025,0.015041848813686748,0.1518930625400593,-0.09790436362087648,-0.03218723982047541,-0.029866499368100107,0.06229510777404021,-0.08215599120022071,-0.0912199574618276,-0.01992174450675905,-0.2176830767086973,-0.0057353094979994395,0.05290245460904411,-0.1006507744373473,0.08946547158824956,0.00990352673923903,0.0949349979390656,-0.0039825394427562425,0.044876603158877176,0.014614820490118625,-0.016774419631401746,-0.033454676058601016,0.08357516908371988,-0.07111349562136324,-0.09422037924101564,-0.21702661139037213,-0.026274728703695387,-0.04139874412809571,-0.011343783994873867,-0.08149271217293834,-0.06154110113841197,0.02678421171447626,0.06661109258036009,-0.009291090051551631,-0.09381804884645219,-0.038311239333895374,-0.044555014687086156,-0.08045366446283568,-0.12969788237845545,0.07947779805837277,-0.0035265858455187753,0.05097376118981917,-0.004734426703340896,-0.00009135126895994283,0.08075974869896552,0.16780607669594,0.08664011012707498,-0.1003697686346462,0.02671212772758364,-0.07883959191549007,-0.04101829961251864,0.018792868795099414,-0.008446112255204485,-0.027480834883074307,-0.09688559193964245,0.08682409748389701,0.06163417946948828,0.059183452324893776,-0.10342019428166095,0.07860046339296473,0.09417148713311752,-0.07453590838226418,0.009269228319318448,-0.12602678225030547,-0.057595657747453906,-0.09508520358326193,0.032996929668207636,-0.021574513507863474,-0.029366052119225026,-0.05748636486602823,-0.006127906900640965,0.028492309823566184,-0.06556994985449002,-0.05834065486531481,-0.06197726721940946,0.0784919797741802,-0.055360731331368915,-0.12067161647348602,-0.04891418445562111,-0.04540779430038011,-0.06246221643751477,-0.03470472816928465,-0.03231429130225467,0.008441683513786054,-0.010624078767649044,-0.057981501890647415,0.06363630379490871,-0.06293480855216833,-0.02029733681818068,-0.15445118884066514,-0.02575708903228207,0.01777432097161392,0.017007522926220146,0.03509372677439408,0.0262792036851355,-0.028352463644588762,-0.10833399320697049,-0.023430338790654672,0.011156148977677348,0.05613756927910969,-0.15353495429030262,-0.07138823828801925,0.09770380561878853,-0.024000000297323184,-0.1275267106968205,-0.006798338089471378,0.0241640841266981,0.06956582532946663,0.00400079714917109,-0.005702960321104626,-0.1068831367670017,0.057037443732019306,0.04710903311637916,0.03809195123718071,-0.0416266502241384,-0.15121889634470778,0.027775879633335675,-0.00969679644396197,-0.15391701144095138,-0.08087965441468854,-0.012205215652051488,0.05995948282382715,0.07763099881425742,-0.06647545882971644,0.08910069044583833,0.11146740667075643,0.03261537042768547,-0.007481967411378197,-0.0546518232380465,0.09396305974653424,0.15748733056922742,-0.04764869741411308,-0.11063654558242425,0.005001926184889857,-0.08502032029850137,-0.024611729031391697,0.03953189995844148,-0.043032377463280896,-0.059819135709083746,-0.043622957894439075,-0.07047147292612851,0.11898672279973319,0.05141485513763904,0.03942739411314913,0.12684248824522126,-0.11061035512248309,0.037925206832205606,0.03861539170358018,-0.01900379896154561,0.018486540998476575,0.13518025861110589,-0.047833919533973784,-0.08467201236568903,0.09468084786321011,0.05785737870606486,-0.1413281889623634,0.04999530207805359,-0.030874512818780803,-0.036655858631372044,0.07981126229571535,0.01816996256773628,0.04282357420983011,-0.03342184984517588,0.08476424809814084,-0.01498455143538832,-0.07437064989672175,0.08670417742922372,0.046079374180503195,0.08820469579665187,0.06626676709818868,-0.06319353437927588,0.03230588784796752,-0.11320774418192964,-0.04907416710525619,-0.008393953741946824,0.04207787556519077,0.007000903078335644,0.09081522298289746,-0.21178893495631937,0.006227969327022013,0.019003728780000517,-0.0673574727213453,-0.05555314022453335,0.004216234187181436,-0.04979173785959535,0.063486245966791,0.016309339861591502,0.16858312425980157,-0.030291224151360974,0.002971859362798314,-0.0020681781398481517,-0.10889498609083897,-0.05061887594492299,0.13945858488186066,0.15649140692061,0.09580459191628463,-0.0017143017857991964,-0.04047342289323353,0.016877968086754676,-0.010112491227027164,0.03745785848356316,0.005273314134897022,-0.13465966065229634,0.07297576734578518,-0.1375306181875746,-0.016123481299887884,-0.011397616554208756,-0.09870024141121968,0.0555032295179002,-0.0608892803156034,0.01393510157077067,-0.08745728250879953,0.09253536530860611,0.016295726943706377,0.025450880159655808,0.14047092621418536,-0.10225723566852066,0.003473001223747978,0.05434290072550405,0.014696242097639159,-0.009388771293633113,0.03252393282496736,0.021346387007870143,-0.10082128316239476,0.05894855562848966,-0.056743940920446406,-0.0695594164331255,0.08594219086840124,-0.05569179460040612,0.026602711855551613,0.11173647584829322,-0.0005065028230961086,0.05143732560694257,-0.0017956942497284482,0.007838821004622541,-0.05918285347444798,-0.046124968869859076,-0.01587092831597819,-0.09223376000770052,0.044363934700245716,-0.05020430217756305,0.05729012440787589,0.02721063420266369,-0.01816634897067972,-0.0786077782637234,0.05525189849005615,0.04209234554806913,0.034427305828633896,0.18475049926556533,-0.09844763425593363,-0.03409185603900329,-0.00001379576632795171,-0.1593649588260223,0.016711134778336145,0.11941666339784701,-0.039276721368481676,-0.08023458653050274,-0.08434538113245692,-0.03045819198242702,0.03236550707968327,0.05239284947520412,-0.027225648312774114,0.04000833554531903,0.010532823615002067,-0.038909925829918535,-0.1154747154017449,-0.1927380003907403,-0.04140664837830355,-0.1150179786468578,-0.09067454843965427,0.007241812436207139,-0.013636739080087824,0.09257014156307444,0.01697596952373727,-0.08264716306521047,-0.09767310378004959,-0.027944016178020108,0.08004221982003587,-0.08042368114960245,0.1506622660258697,-0.025357604403244093,0.05750860769225435,-0.042098906746914806,0.060239581061627925,-0.08396414584053748,-0.040653210763073225,0.0343862703355069,0.07299683015807923,0.04921748584466953,0.007480077815566012,-0.07443084896637343,0.010026492138817624,-0.03530887666249965,-0.04782561762326351,-0.007499362448975229,-0.03946592812590473,-0.0737013234116533,0.027906922797888253,-0.0536370320256249,-0.09962379186481428,-0.03388686110191826,0.06594286616763818,-0.028907893340916042,-0.08465131069128021,0.009933328070811907,0.02388786015925073,-0.00650431563521498,0.12146482637000447,-0.07877734139734448,0.10131144222425718,-0.07755377580533009,0.07514971538365893,0.03552672724574408,0.024358705475971423,-0.03417879829522297,-0.18972299314923438,-0.07581490634465306,0.050217428819929466,-0.059539418882037544,-0.061976683633260234,0.005873141938401253,0.07283339102696096,-0.021973185800981006,0.024382567609908177,0.06487529170097014,-0.09377639410775375,0.07801281380599799,-0.0338101575162693,0.036604719725109314,0.0330242644684678,0.06917825048997803,0.005111039482932964,0.024166767017591684,0.08526464229267959,-0.11549270693673001,-0.009498102655551332,-0.1114048993363669,-0.022024055451281,-0.0027520920304935667,0.01699672588504542,0.013307171628526812,-0.11217645314277659,0.052514082914865624,-0.08598476659750977,0.056107066433523325,0.04458613797703043,-0.047700637026332364,0.029975412346415216,-0.019816272265437352,-0.12233421545319301,-0.06078454772058993,0.07181527504010188,-0.08965932074219543,0.016950545305405112,-0.016632484606565974,0.046201056714563225,0.0023956198767266317,-0.06456783693004745,0.037681389012001285,0.029468040875135455,-0.03354194059697855,0.03943601645199819,-0.028081500808395343,-0.030001275811756083,0.029249568691822308,-0.024603240922207233,-0.1333308033041977,0.025935405853737315,0.07262928248561451,-0.01756773853720802,0.10096660860554761,-0.05996898561932859,0.10863032382597942,-0.13598339131046447,0.05132161027185165,0.028535961487054094,0.04812281623894215,0.009715097354427143,0.06054997676237944,0.030542202345324312,0.07019430804805818,-0.030481779119451078,-0.06622578206793342,0.026186746193438686,0.07622218834193739,-0.01329504181170331,0.08274898628624255,0.03863224511799976,0.04413841770621999,-0.034615035782986414,0.015796065619666573,0.04870549116416775,-0.06682423630567316,-0.06316561454084346,0.018882603359147862,0.054519807578498496,0.02749220596305623,-0.0982189204414818,-0.0294929986628533,-0.0646289943446538,-0.00933075857583145,0.036432891334316715,-0.11479344570917457,0.08732236951169332,-0.054577708303028424,0.010393920318031909,0.02221460554903526,0.11817514380137359,0.05463308484996084,0.03471743090292745,0.012472169658534446,0.012194715275416513,-0.055652572050209896,-0.07856278218841695,-0.04534239495281553,-0.012535577859104495,-0.05633573295391873,0.007289313857052109,-0.013045795236072686,0.027751560579848053,-0.00292586000286116,-0.1627407259876682,-0.015513140151807393,-0.036868363483265026,0.07104033093638965,0.07110537936341489,0.03100026671076737,0.04696700318672153,-0.030769870573845455,-0.009880332877491021,0.056522995451619616,0.0050184303554308305,-0.04306792518745004,-0.07551482283101837,0.011131913204896572,0.04048143940330991,0.004745202487354123,0.09831675671691396,0.043428908207636736,0.07789009360739196,0.05711297282474327,-0.09854617199401854,-0.04882205390621211,-0.012696680380724263,0.02719394654508178,0.06122868861940025,0.08476493351692597,0.008360290066003516,0.07862258282098186,0.12413383132147382,0.05671163956195632,-0.03789439140493881,-0.12799766445901992,0.06894111447388573,-0.07714010656365193,-0.0803949125362756,0.11921403565657858,-0.015667018759162845,0.06087758057401951,0.02221830615326427,-0.0678277960683804,0.022510070116047994,-0.15403949650049367,0.06626370351905451,0.07718546074012912,-0.07827063250978679,-0.07556751263886644,0.0062356042860517435,0.010090808825209577,-0.08418132870309018,-0.10653145961662239,0.10366609043933081,0.021843682482850228,0.08084773362439318,0.001618113167707537,-0.007575352220529773,0.06524751771447054,0.010587582772256696,-0.025720112916935208,0.08632749842706403,0.04492930812151538,0.06534440593273512,0.20214340423936655,0.06188752419802648,0.007036324007998948,0.044588052532600515,0.05802230692163707,-0.0264640376644567,-0.10389877255296681,-0.15946813643976127,-0.013820325444811895,-0.007307592859503113,0.041487910947499144,-0.006143729526962234,-0.12624408104694554,0.2058379383701745,0.003810327902778686,-0.04645558348578292,-0.07043829074095347,0.04492611865483691,0.10399820824091946,0.06035610742925803,0.10332201201933834,-0.14009932554327806,-0.05365793759684291,-0.0074412254278820155,-0.0681426543506971,0.010469363818193075,-0.11212845093545142,0.024189421053549265,-0.09766217552651874,-0.11946019800732699,-0.013703764646792268,-0.13380737647573715,-0.023840371707884007,-0.029601189663249698,0.01770114797230209,-0.004931629128423946,-0.01762528254513129,-0.027965545559734302,0.05284384839161761,0.07167150004119817,-0.026514250439550493,0.04407953379406544,0.08703106652566311,-0.11439351435045866,0.03430661086819613,0.010872377709634286,-0.012997652474537477,0.004092581240885432,-0.033681452087753604,0.06481566560114102,0.0698042272639168,-0.17286805410944153,0.04882523466814695,0.0580318499732226,-0.003675051447094,0.08592636391779034,0.057429375010882425,-0.12691523637865496,-0.0847307532247389,-0.053988897558331084,0.01994097877727631,-0.056715027961394736,0.031955547066284916,-0.021212573504979775,-0.006163085448493988,-0.08550747020217414,0.09536014694093632,-0.02214640555981064,-0.1387244780454631,0.070954399739175,-0.03761517893608084,-0.008039658680733912,0.03313311073011148,0.029717641439828222,0.06130187954282019,0.023926651924527507,0.02544878994297592,0.19156457276534164,-0.011745581608784991,-0.04848910178678805,-0.028587301216006798,0.1561423867189687,0.03173891727329548,-0.01032270680492396,-0.06185162117884271,-0.010083936282570035,-0.09231876184854539,0.013048568089630622,0.010581950125362952,0.06989001136514501,-0.058390135137370916,-0.03672200315761694,0.017502783358148116,-0.09078931045634811,-0.02591847046076782,-0.058019877532745845,0.04533330291551512,-0.095771947436664,-0.08464410363157622,0.06179365353910361,0.09014977350428253,-0.01996140996653114,0.08385648099164783,0.0422391537202014,-0.0943267027886382,0.018963862413546317,0.03447060220391512,-0.12639585226496597,-0.014679748933158904,-0.09747001344350459,0.0106748686663746,-0.15433109712983836,-0.13202867730032802,0.013662033584123113,-0.02580147930630168,-0.12278489182877064,0.01785523581890024,-0.04927899615627705,0.04144109211114711,-0.009707832106344306,-0.03972524934516463,0.02472698492422229,0.10215025349668881,-0.09406058339956136,0.003859355913407215,0.04475450358108219,-0.031731450038962855,0.027870341086187706,-0.0010376272295270065,0.053926011328175656,0.05935523169925474,-0.0005936948589843352,-0.024701836352594694,0.07179854270313124,-0.03304490797120996,0.02846213604266593,-0.09447802443714651,0.12149586498767709,0.03720450541891602,-0.03482826634487684,0.014007700865948935,-0.032735391342144864,-0.004908542679912446,-0.15000869005116418,-0.030212958243172588,0.06447854507018907,-0.08927704364147498,0.025768535419603493,-0.009164147609040475,0.004408604705365541,0.04459992586794166,-0.06403832656279002,0.13927693134715843,0.019538742778037806,0.062196566554542886,0.04721944918977419,0.11208476600560563,-0.04664147686288631,-0.08296558158821993,-0.04831132662288929,-0.0312710270274385,0.03579851077863774,-0.0935787926957386,-0.009744209738196365,0.021827056837853777,-0.09936125951968519,-0.02308765329775165,-0.07093266617866491,-0.04310490829109776,0.08195904048349599,0.04968554226103174,0.018666219168158228,0.03983425543202684,-0.20957426901702128,0.04998803857546688,-0.02167507518062515,0.046634887033451394,-0.0611943391472369,0.07984131985753305,-0.04957938192381991,0.08384397321608617,0.08386626858031143,0.03086454023407981,-0.17494048844061363,-0.04719104865996369,-0.06389738581557568,-0.1311277934779181,-0.006205282202577279,-0.13448247864604973,0.09627251941574684,-0.11887542132897716,0.06561092905501109,-0.10695522287849794,0.04285371734490682,-0.0029639979234200448,-0.051960886376390014,0.09924462897552117,0.06278317839880165,-0.012021124034071795,0.031603410650645127,0.08103495146876373,0.04046383309441254,-0.09926352245727346,0.051168949201183894,0.007309958502808718,-0.01591066858920672,-0.029042293220929292,0.0419411674428039,-0.031349437176739936,0.0014538941568412673,-0.03544126209527316,0.05295333516652797,-0.02312457545423636,-0.08050381483338444,-0.07086634315398041,-0.17730516533957083,-0.058674919234348547,-0.07856250349149062,0.07964393620874166,0.050698853236277576,-0.053192259198680494,0.09224822680498024,0.013388034844064242,0.027338779224717724,-0.13828520338598588,-0.020201224127666444,-0.06385198183431229,0.0667733602283062,0.00521052093245183,-0.016371777136209558,0.008242864912634052,-0.11433471588800029,-0.049799624427091134,-0.01584073075967778,-0.03080951163189264,0.11375546349724773,-0.0902308208267068,-0.1200836135329117,0.05490818267818716,-0.02925109620819695,-0.09402066412179345,0.12842938136825702,-0.1350747220427794,-0.004811270471143005,0.18490465486755508,0.16559091372944323,-0.08608565371771415,0.16006882280514506,0.05242385509335221,-0.060690281066078766,-0.06500065242233034,0.014976921593163906,0.0755685460753588,0.008750975360676401,-0.0874321895797657,-0.03789000099829581,0.002008385360004729,0.09667317380663329,-0.004367058858289426,0.04672531053248275,0.05077667640218936,0.09272245401981012,0.016002995908600725,0.07875486773854166,-0.04669845594437848,-0.00878485816632333,0.020063374987234105,-0.07349070879172136,-0.043427503829743766,-0.048008517035596866,0.07260063725696038,0.0378215488956846,0.10396564893343702,0.05678237528676056,-0.004893342127880011,0.11800508770239569,-0.16651404630865196,0.19968847214004443,-0.0695283192236191,0.11867994988197077,-0.08011091122758263,0.013767497494915055,0.044555361335620984,-0.03154884515123965,-0.02841112208425769,0.04708160870275336,-0.0979075760865117,-0.03592783831807888,-0.026225926199578316,-0.034973283019574065,0.08545633427774267,-0.08753331269992275,0.06610750811911564,0.06715396039385409,-0.10603664125663326,0.20251429136283702,-0.034341560512843594,0.025903378661327133,0.044271607632550704,-0.0050218831389094,-0.1822944407367961,0.0703772552702571,0.0676381560751953,-0.08416818097302023,-0.08049231818884107,0.08430860089549885,0.014374198026549706,0.07399556550692883,0.011242841064788187,0.02494296921409242,0.013438352496988855,0.11466028181528859,0.06121150228075411,-0.08959061941044894,0.09342396945670649,0.03724681611194785,0.025780508475854582,0.12901006097707085,-0.03419446479472842,-0.04455394661561342,0.09255530060248883,-0.15607823642103885,-0.0035056885372371305,0.06757340968668164,-0.1571065605385261,-0.0646416096503613,0.0009014733902727799,-0.12548230870909843,-0.09727670645985377,0.08373725983669279,-0.06285652308900025,0.08607726146039925,-0.07696629185125464,0.07122288610834018,-0.02466482735784245,-0.11542892127802602,-0.052313137063530565,-0.07034558842451508,0.06721631526591682,0.04364934288835942,0.13728443100086873,0.07020170269573694,-0.029005020111053846,-0.034225068357510595,-0.023329250804490324,0.05697603153416703,-0.09260981222742008,-0.0070497362389458865,-0.008571681382835364,-0.018649618151717524,-0.021540768231740812,0.09003633585842956,-0.07582749528630411,0.18077673754373189,0.07357599153455181,-0.06475726672965007,0.07846962257314956,0.032761547749844466,0.032778876158995475,-0.018986437866330072,0.12602853686669643,0.05003331672016354,-0.07166591931610793,0.0059688293170882195,-0.03279524495417749,0.059885174010674794,0.016177571979787624,-0.05332695310193667,-0.08364351983497795,0.02507958127028203,0.026097314702956904,0.015154059376372863,-0.027465875658763444,0.08020540711709916,0.015381111581403999,0.0011093553927698408,-0.06987138616073668,-0.024098095280716256,0.017283307372366663,0.17286053130537524,0.08759699871751984,0.13664795931229862,0.03643099480221087,-0.007353045661566917,0.0341311000433828,-0.00632093682619383,-0.09407115026094996,0.025305389092242798,0.041708713046955684,0.026037009294577793,-0.05312891631040078,-0.10670017135530357,0.11966550369402132,-0.07227827502896503,-0.08064605400960648,0.03231764670308708,0.03737758869921384,-0.050326208040575214,0.06495151824873331,-0.06888364827506767,-0.0196097847366802,-0.0181194602833329,-0.04768311935305202,0.07678367352565575,0.0035592097398740013,-0.008681194542272529,0.05849169320057719,-0.009402372607058198,0.011679524528902066,0.07997979241812167,-0.11083673722442669,0.09350613530496665,0.08356282427063974,0.027426132985935495,0.0045256151078944306,-0.10897415097667766,-0.016572465848399963,-0.004475704439176794,0.056194715056478786,-0.002504927802344995,-0.07364699741937304,-0.03533987973627659,0.06591448155917222,0.030994566779990428,-0.01735017883506481,0.03631003638763382,0.08047421607266958,0.015093295850728248,-0.040640670136425604,0.15758269612485878,-0.0808335569188986,-0.061154277690154184,-0.2108769226908977,-0.03775532967676476,-0.031033469079508713,-0.028126360572972436,-0.04229209334508836,-0.20400762235943268,-0.14681734507021738,0.041441097268692134,0.07810998527450745,0.03566797355575216,-0.060748374070350324,-0.09841358482399179,-0.011738257375708943,-0.006920596200711431,-0.030465531277884875,0.00854404751560485,0.02430736120592914,-0.19689011099196493,0.028988516637996686,-0.0693292880913483,0.08463578202122136,0.16361593054387907,0.007187976267563399,0.059314009548834416,0.048481296443995577,-0.07635907649249025,0.09639132771266828,0.07205475859828175,0.06493019464462707,0.008438164291825586,-0.11020276280444562,0.02918420787705597,0.024000693687639293,-0.028876062773892885,0.01616848553686101,0.017404569868613055,-0.02888770249429446,0.04149966491461256,-0.038737710671222364,-0.005235786575075457,-0.10659334857277421,-0.13737377692064934,-0.0617246948532932,-0.19280763989055177,-0.08614503891765479,-0.07470431736352999,0.06734676389676748,0.043779470433164006,-0.062422257203024314,-0.025396159301008414,0.03468943622266904,0.05017152542644647,-0.029071661013531872,0.004906298223805211,0.012737947340675944,0.03599992878299233,0.02259361791590955,0.05430431844510569,0.026581880390702025,0.02916005741361888,-0.11314627582207422,-0.025228924718568135,0.07310833788965537,0.014155017003796991,-0.00001464771076699075,-0.04378864054767641,-0.01608128008924513,0.028291433854047112,-0.24932676676932472,0.13487473015635235,0.009453958138014664,-0.00543105642655777,0.07287708598052128,-0.1257710395518013,0.0626078957147697,-0.09100489326575938,-0.011623072655258915,-0.08430667953899615,0.012446256022754568,0.05947011334700028,0.16677640051911466,-0.11997695435718046,0.06087120752077071,0.020199140017935567,0.05838860808319716,-0.002617395592145389,0.028366159014585744,-0.013344521952524963,0.03138065494354299,-0.10882170418990958,-0.11186843158429824,0.14788537475544525,-0.04875258418217514,0.10548817146688,0.05646937247983124,-0.06640879070066805,0.07882212046582367,-0.06943333048436529,-0.06961674965498536,-0.051002065932778125,-0.019046623468823454,0.15729677302497422,0.024935325325532935,0.08988559762357234,0.04176638959046817,-0.08021806831949951,-0.06941897999386894,0.01452795596191905,0.08009308118036608,0.034436965943281724,-0.10632469758002953,0.02931145632273169,-0.056268569571285044,-0.002635660116723924,-0.03469863551484512,0.048596849676480085,-0.09421395962693559,-0.04136735880260838,-0.03950915850946584,0.018707503754813375,0.004625197777944594,-0.023427771599308082,0.0045862729587629845,0.05402270531950266,-0.016687428477911753,0.04618552615074483,-0.0029295592559865228,-0.024623403797950003,-0.12226073481741666,0.23881110510112008,-0.1053078828612909,-0.05015979282917879,-0.0998009318959132,-0.049579593353062015,-0.04520711119521736,0.08351010442861924,0.06552739332884337,0.0241158608637844,0.15997814187283083,-0.06948678501461208,-0.028021131140820957,-0.13907375711945216,-0.13804734270559044,-0.03833554931146661,-0.05049408233300165,-0.13876593400383735,0.06665076610765737,0.03300366423073046,0.061818860395969684,-0.016297125580804213,-0.10544711326154205,-0.17236397939742543,0.14340052600266337,-0.018343766838902216,-0.06299767115811113,-0.017457697252586116,0.04204340385953142,-0.05029000930715276,-0.0864290605170927,0.027220668042092677,-0.1810697757332311,0.005341612393171981,0.03229314650460952,0.023129721205818212,-0.0691810319426328,-0.17350952563587724,0.1220001154757195,0.03963899840382058,-0.008348022964961942,-0.12629990496815122,0.008006064614530314,-0.04061000026174537,-0.14123031043379555,-0.021266416541015184,-0.026563990321551267,-0.1276143538846149,-0.08083431222344013,-0.08469590990101952,-0.01153623573198954,-0.04657286000281522,0.031215159369669433,0.05973573695648923,-0.04193085608759839,0.05739746066465138,-0.013028038893435548,-0.004813291691011593,-0.16194226695280983,-0.030079313975806425,0.13678963742462735,0.012323852143692908,-0.20440020587967994,-0.023977167022657914,0.029286902718635346,0.03520204167361121,0.1238609678241865,0.06763732756774557,-0.006526691473558446,0.02733977812452974,0.06891104653864423,-0.019055919828046688,0.1316424644375149,0.11877756211533143,-0.06371936233986146,-0.04708973343708118,-0.0944090073164637,-0.1622694426474889,0.07676209271254762,0.057872869251874653,-0.009697057709796545,0.003248460085196623,0.1520521932841398,-0.005893836065521862,-0.004429214090745715,-0.09137295446558567,0.03143497281902189,-0.03111691005056797,-0.07158235961908876,0.01123856460214566,0.09694479401704055,-0.0342734645919923,-0.019072732272653346,-0.05565036554223782,-0.10328002151147424,-0.050887562183083934,-0.06669951924070487,-0.02435562722178599,-0.016360774739554215,0.007185613782641073,-0.06943593644574368,-0.1238401569606996,-0.056648059178544076,-0.13052906940748407,-0.061934275135347494,-0.03218260888334197,-0.0865282074746875,0.08830992044503076,-0.01627297687977397,-0.048988636031688924,-0.03731884939101384,0.015985664724614268,-0.11811178410411645,0.014743949479691893,-0.12052227726782674,0.059655374433927905,-0.052406979992058775,0.052930600074198794,0.05762521134433545,0.07381820834009396,-0.02754933143510705,0.15506174996331906,0.0450116705142163,0.03462739235124338,-0.04909236986236697,0.10510888558555416,-0.03158800356247379,-0.04934025866486745,0.02094890446567215,0.04792815064882243,0.06639487339919758,-0.03715516037441187,0.01737790046604047,-0.09996821265436148,0.08443068983426258,-0.04576768435497981,-0.0456230178753048,-0.0887720248593771,0.05151943186214841,-0.02946872251883272,0.02815865950735819,-0.06206696188171312,0.10271272223291789,0.052944723495122546,0.061302915754556625,-0.06153030614598072,-0.07517995265916415,0.027935802880072465,-0.07830824472076846,-0.046193260450741985,-0.06827864355038908,-0.10722963203204261,0.03655229373309946,-0.03754847578456252,0.03977273104356606,0.07143780267106,-0.027350496214793667,-0.005407221222034467,0.1195817443470529,0.04786068580053054,-0.05826955188814042,0.07422086820624117,-0.057631789471636316,-0.023676771546331566,0.008656879512995177,0.02523860915062792,-0.06261275379790096,-0.05025014305741646,0.011725178712902483,-0.02617376822203164,0.12491544897659156,-0.14929311620128935,0.09705958447931136,0.08458112764097234,0.011421422195161157,-0.0002600136779505904,-0.05411754194449067,-0.09046273817101495,-0.029110797030387416,-0.05912736716826822,0.06237595411777106,-0.08705776821647307,-0.05420351794929451,-0.19756142623169995,0.04131029565673392,-0.16917631150491674,0.017329896131814782,-0.1255071311268624,-0.1441645539848107,0.061736710997725104,-0.025524406586512893,-0.04007744629106593,0.040362455304385515,-0.015941295360908374,0.04012227668686174,-0.1721630229772997,-0.061936777642562044,0.07701581675885859,-0.02713792984068231,-0.054761747110024954,-0.08193405523414866,0.10057542618905897,-0.10717463688912568,-0.019628754341361715,-0.07837785162944494,0.02227901287817587,0.13555615566283302,0.059508856679099574,-0.027022699897290333,-0.024574397082846096,0.11977857454182272,-0.077934386558912,0.13285983310087993,0.05466022476274582,0.01581968223465852,-0.01953596151850162,0.05918036829994469,0.04678988609840215,-0.07048580246834894,0.051236443236621805,0.09107178066998246,-0.05644783916945458,-0.07025503584953861,-0.046814341310674176,-0.04310762769992074,0.009002994152053743,-0.14610844329556485,0.02866895859190645,-0.018375267141725743,-0.013149845192839016,0.07751810998944715,0.061863850242196136,-0.06294016738388888,-0.006885372078143811,-0.10542226134990348,0.020153252613284846,-0.02260395437819829,0.07832195536034857,0.09374754265771806,0.026983315951833578,-0.034502159109386234,-0.009717606328317937,0.07378501985317239,-0.015713456253808444,-0.043855911607614595,-0.08599701225925326,0.03115684581434611,0.015395591406819523,-0.033421576411756825,-0.03662483416674065,0.03389357272345413,-0.044354717295394024,0.09268938574969826,-0.05873369827468221,0.17797082571750908,-0.010684093109206254,0.08781882974202726,-0.12556917987928518,-0.08836121104632934,0.005457804251087669,-0.00872432460719751,-0.05141595921780873,-0.13613149979592964,0.058634159915756,0.0478701443327163,-0.1886487170166752,-0.11056742094104402,-0.09399762911232981,0.04250636559535602,-0.11253451580102825,0.09348600334408927,-0.0306131647208148,-0.022588768798501573,0.10837671985492392,-0.00959102496467861,-0.024086446752078675,-0.03961379088917066,0.031191949320666754,0.06909162982954793,-0.02152598093162441,-0.014075180374525724,0.1394663190986639,-0.09377997260075294,0.04425259189560968,0.022080072327048922,-0.054053687422814946,-0.07603831999552041,-0.004142832835266397,-0.031211850145258884,-0.14122312349449456,-0.012890282014131898,0.014844186953966743,-0.02384335273974091,0.06050004622453331,-0.032913928673383476,-0.10090899182634239,-0.05903157754092331,-0.11447277733411838,0.13742700776010652,0.06233869055002565,-0.05586603067265593,-0.08234940468743811,-0.008871261408987901,-0.05263768439185061,-0.11935636848489148,0.0727918031060811,-0.0729306844686575,-0.020674340281437432,0.09416805244669119,-0.06801860532543529,0.048162651185273055,-0.006760549637908459,0.0031031517031539983,0.004784962653318856,0.05746806908495825,-0.048726727955475176,0.00908576324012859,0.05088034457954108,0.13273475150824393,-0.025262826232197326,-0.02569545307119061,-0.01827334343969275,0.011376446782050844,0.05597242642467141,0.055769813937343385,0.07324750197997897,0.03881834756129957,0.06574762986660239,-0.027775904515374452,-0.04155729370771764,-0.10279432891712757,0.03474028350006546,0.03680850716169444,0.08862349060585022,0.00256638607604594,0.010094223312424638,-0.07723484435545153,0.016395374164118987,0.0176783545299698,-0.0805264476854307,0.0932356930185242,-0.0383525080000684,0.0028503826025205988,0.03510853306816423,-0.04737962539180314,0.02430420906508539,0.04754459324389688,-0.013382236694385076,-0.057711056486659855,0.040418576627846314,0.028471523474149246,0.08268298963274998,-0.01356759226798179,-0.00012557550356315255,0.06451079502896545,-0.014584203205019956,-0.06768894661759982,0.04754129052840468,0.06781028357352345,-0.08301730354155752,-0.10792022797641825,0.009616604729019144,0.07435101344018988,-0.12609863890177186,0.08293188910162909,0.03946425516476226,-0.1235400166259704,-0.11759886043074323,-0.037764640986744105,-0.10225246880691928,0.07536294694783816,0.09431615125571596,0.03472521894542997,-0.09285113126679018,0.05301714366705859,-0.08874187452427665,0.007415922846032422,0.10153177808155178,0.025509774127533247,-0.07460890793820861,-0.06639143947612142,-0.1371446647742266,-0.0047399742695301995,-0.09492400154554848,0.0870867592533383,-0.09692120618437584,0.13231608041161352,0.045690068310923766,0.11442493416305462,-0.05755450525041865,-0.15364688241873956,-0.07380390974157293,-0.010122001982499395,0.024645044210358454,-0.0558340121176655,0.094728094575316,0.05466394956165672,-0.09091426579986903,0.042459257653100935,-0.009898154058695964,-0.015524766892458294,0.09600671651783182,-0.02388747411338876,0.032279421070205566,-0.02852919703923292,0.02820918457141618,-0.08845091246693818,0.06761795971099165,0.15663446678400827,-0.00420250322995442,-0.08486871661162636,0.045866058797857774,-0.09437359046286384,0.003842227212104561,0.04369893633804618,0.0016365992042104403,-0.14199707489481292,-0.15482307347462265,-0.033900763216599294,0.019850840754100756,-0.06815296310319267,-0.030130310131192023,-0.05597678390242493,-0.01801496396440839,0.1537223851520025,0.01792628654230594,-0.031457266000154034,-0.1562466920542514,-0.02297160310323656,0.04011358734566593,0.03760047434780764,0.014731862643819848,-0.14901355219642007,-0.046632429112298986,-0.11692882223269774,-0.019871279257369787,-0.007762795228584132,-0.11872240124787337,-0.10701059586048868,0.03104231259517526,-0.07553365949566829,-0.07439815186854548,0.06264531666453951,0.008233645948630196,-0.0723485170584461,0.08624379436613713,0.029759493035185037,-0.03507614653512955,-0.0362048857589413,-0.025110559046709332,-0.0459899383301298,0.06892916332352897,-0.03533703778874911,0.11584644903438328,-0.1294068559110625,0.01838851495271522,0.09101225391903203,-0.00327655136359308,-0.13571757306165574,0.19508225923462694,-0.19719291600939726,0.0011697931692068225,-0.09192990128891321,0.042638974657798465,-0.07383292516125059,-0.025537004751462904,-0.06460513681194778,-0.015146558307468702,0.059708913775149086,-0.08649583401512123,-0.07208072770786648,-0.07761445738910151,-0.005614288337444135,0.04853046068807577,-0.010363452293120872,-0.009566339049030245,-0.039311785767537986,0.016991546608571637,0.0075994227654427845,-0.01866311758284584,0.048980125292518155,-0.08635362158007728,-0.021645697733258647,0.010437385631643729,0.09211878040205967,0.045327301452635825,-0.05175906642523649,-0.052048350382745516,-0.11978093472993565,0.14401475545245068,-0.011675579686505866,-0.05396169935355095,0.0013238234890989731,-0.08780400620462754,-0.04074075537371876,-0.022989238035284278,-0.11789275860429053,0.05072482103273671,0.0014226924434881558,-0.022417118104302466,-0.07466519610731569,0.09095934887744679,-0.024656575455105478,-0.03752122636398014,0.011579720983227751,-0.028686265570562895,0.007426598652603706,-0.032903597564360794,-0.031478296070684655,0.023782902758505232,0.009629550305060096,-0.07180545575661994,-0.07109394255075362,-0.03726556587750126,-0.03912008405393745,0.028833418620823625,0.0209015981297393,-0.031861548858636825,0.022214240615095558,-0.008603069042968543,0.03156728505533695,0.01169370629391678,-0.04925931647703601,0.059477715943670253,0.03325921756780883,0.028230549433792433,-0.02964483481905,0.07188432531336346,-0.01445978119410289,-0.042562730185916574,0.06737070428675243,-0.03588876758099458,0.07190407042338072,0.029291318198795546,-0.0514613695298332,-0.08995537497597472,0.016957018062620045,-0.01354868021897305,-0.022234378907635483,-0.01845209353630373,0.12726521926920786,-0.020305128073378687,-0.02194185782449497,-0.14311600054084564,-0.0066948528553526475,0.11106070383002382,0.054425260664361576,-0.031839414583360086,0.0835536634749587,-0.02872401592216424,-0.029089855777513,0.06356009905165176,0.013980194461928972,-0.176899172298225,0.06853285683648104,-0.03932015856613967,-0.08045732388805857,0.05691311979803547,-0.06029251714997361,0.021589174583674604,-0.03977922051312111,-0.08899199509082067,-0.07361711038566199,-0.05701136075411871,0.0011669859555850865,0.049942776322492194,-0.05989190916160244,0.023191209089833537,0.04767682718854037,-0.1129769260583282,0.05521648285816527,0.040009420375729805,-0.11273640210995028,-0.1466771570626309,0.004671373908625611,0.04300288727062182,-0.012937951321838271,0.06437468361782718,-0.03277401206489562,-0.007533668398017349,-0.006227792724060347,-0.11107695007236165,-0.022459573166239685,-0.054928923201790006,0.13866483632609197,0.04016888868432352,-0.014078960256244421,-0.04196464598974247,-0.019499290004234403,0.016278611844539232,-0.040707790885714246,0.17624146240677233,-0.07982522419423711,0.029179555682180194,0.07668304204724236,-0.02309995155203193,0.0353910862104664,-0.09073522310618254,0.08530351284374463,0.002733989282854256,-0.0779840947119362,-0.05786252319549709,0.12982048375520316,-0.062034518303876275,0.04802990081168441,0.06852186188659985,0.0652197218004423,-0.19534532363218932,0.06968914641922866,-0.09090230231942993,0.002744617735036087,-0.04023135266168503,0.022583630300463325,0.026623461072268036,0.018374978208767427,-0.0522908586319809,0.025112722479280723,-0.03618246627892102,0.1872692228321908,0.043885068573946424,-0.059942657584213396,0.11328065041431391,-0.02862258205788774,-0.020163265000808613,-0.015796825190235928,0.02815862003033952,0.02258038599052641,0.15414181645992828,0.008383022059303318,-0.016601781069482294,0.08681897856585297,0.15485437538310654,-0.028599917124107775,-0.07413655031920802,-0.06330335374166994,0.11595130842652986,-0.08269017411550768,-0.04474961199755648,-0.06744752112743034,-0.0963183725184457,-0.08374441192030095,0.1329262607511479,0.08552852359001323,0.014257135929631857,0.00043359704087477186,-0.08541230114790228,0.027201156586734623,-0.11779941109071426,0.10436941438506411,-0.02636272988520855,-0.0024866643603085195,0.09840789036272671,0.06858565893480409,-0.008294247601080811,0.10110951459067641,0.08647122679008137,-0.14642739085741854,0.02502634154343352,-0.04590746872026107,-0.03154247770986573,-0.12517817342824314,0.055281977663376496,-0.008936092942831736,0.013778825341322997,-0.0429782180053079,-0.0668076916118593,-0.03199707810916635,0.019264780572907352,-0.07408746269262564,0.06539620103615948,0.02851029889040325,-0.09360364634351967,-0.049447863984040635,0.09066231534993481,-0.011063882743018305,-0.08568408788193499,0.05135682125040435,0.03566213376641621,-0.10100596502627346,0.001901961208991777,-0.007847813189598346,0.06564441025048395,0.03278477967249886,0.008224422847251769,0.092825432326106,0.020294178447731837,-0.03184928707800338,-0.05524360273481308,-0.1438875247269563,0.10709791455322898,0.11206769533529963,-0.048926398173122713,0.006458140557958684,0.08745307801249874,0.05715342738682203,-0.015607681653890171,0.06535025475019175,-0.03231218181686293,0.060131686700840674,0.02599294939039369,-0.13239317312668564,0.07135807511029729,-0.027315410501659018,-0.061856409469039746,-0.10742513160135206,-0.028566186083802736,0.1301742284106732,0.01719993204366202,-0.12795607587501406,-0.008663378462180644,0.11693936888969987,0.07151674736163242,-0.04293276241663717,0.008450500414513248,0.014209658952953815,0.02296376857502835,-0.02696014291852763,-0.12500953457897662,0.06679160237604671,0.08795615637575212,-0.10662766922715042,-0.0411821856660265,-0.08595380691378929,-0.10614209002447922,0.07054353947157178,-0.04087763686681951,0.026459478192421858,0.0024223818723828213,0.040586647841268246,0.001426302619845833,-0.005583491151005838,0.022176204899252823,-0.14495072367170664,0.05239008330751812,-0.042521494696169115,-0.01966693961880477,0.06711499169332968,-0.027318736136986422,-0.0903894524138273,0.06258089237517458,-0.04015678297471686,0.09241197101289579,-0.0522834656486183,-0.02754305686847846,-0.03725961417979836,-0.0823709894794592,-0.012098834662221423,-0.029311642772433942,0.05322753007169792,-0.05730001781870753,0.09265404951447541,0.011622018622574743,-0.019961938759013424,-0.04400881207065772,0.03373996962003584,-0.07293088536758362,-0.008728308399052769,-0.08127721385881921,-0.11706870535939774,0.13471050226900602,-0.08089090377470343,0.04172185424742206,-0.01677291834967191,-0.06673420581237763,-0.040730596760285426,-0.057595094200242836,0.06108181685969124,-0.019273376285530427,0.003842572687200385,-0.04822475801494085,-0.06347728246924565,0.1120682226190079,0.05929603158895728,0.05610790356440255,0.04767563918981238,-0.09877927567056423,0.08147541815005005,-0.05367290362252978,0.10583124018164886,-0.0975851351103471,-0.05789207504918211,-0.049162148087470735,0.010613910432168522,0.020088169187918118,0.03858874334025626,-0.0307619526835695,-0.0863241556353925,-0.13200688779869216,-0.037072961412674174,-0.07012829260539105,0.051315185919023655,0.02366713331543174,-0.0131660505037795,0.10203976960018837,0.006948441811176172,-0.02920084295911701,0.1433375141087951,-0.08609899155209341,-0.025615714445200083,-0.027162984416137764,-0.11219918227592315,0.025797518497426692,0.16486964857121764,-0.009374268270476407,-0.09372791698936724,-0.1463502032757023,0.041099204597989165,-0.0010483896323973882,0.06131630818625327,-0.10812565620390394,-0.02574301286898215,0.08077547890127279,-0.08239623195431241,0.0070086957882736535,0.14969996104669753,0.024871557290514063,0.07802855377955532,0.016918121243031083,-0.10411536105120872,0.06106867754027201,-0.022184721953498018,0.08492609699114005,-0.0469668480218296,0.014050686061463653,-0.1512511237030212,-0.09541953825169039,0.034092489016215186,-0.0637212722886936,-0.0016451193271981204,0.030314340895257124,-0.04364261979303066,-0.032076616587414716,-0.14045191634521464,-0.07180521913320596,-0.03834592325410741,0.0639241814960789,0.021584298680746145,-0.07122538462918135,-0.0011858641526998732,-0.05502153438781799,-0.10594422509968196,0.013382467862073727,-0.12913573977030016,0.09742803622977685,-0.02424326245362835,0.019977340027074634,-0.0416473170652654,0.04688302620439485,-0.0712984114125803,-0.04125401432373706,-0.11332928919544806,0.03123326198171908,0.0020145525369440346,0.007242303403052394,-0.07916586349445927,-0.009848838165957347,0.09690887238895138,-0.0035294165980779175,-0.12486532775697734,-0.06390719998874199,-0.09604066109504672,-0.028776022481546728,0.05324357744531309,-0.1167591293461777,-0.033848100269333485,0.09531906539224974,0.02418784719872777,-0.02546892877961423,0.0020916849416039115,-0.053619538825913,0.0025470825707468955,-0.06209926630669871,0.02724202693872027,-0.03571671044159173,-0.08500259464018513,-0.026571855796363265,0.0003805167517596148,-0.17144699552384307,-0.07321313461428611,0.012992364528878208,0.09092232772784914,-0.0034421186367272765,-0.09183689214918131,0.0009185453587944014,0.054388768105723996,0.06175350071928916,0.13753444355219585,-0.03728243328233723,-0.04076882964396545,0.14223279410014142,-0.05154250317010338,-0.06217438404032616,-0.10934069595009932,0.03887238728201925,0.055587876171081685,0.0766860297719395,-0.05289945959623155,-0.08135656917249057,-0.00523045030873058,-0.029710425035941238,0.023904504950188022,-0.11306278014507648,-0.016228792252297057,-0.07058334861732182,-0.11012468230190701,0.08252857875041025,-0.012333365639836377,-0.054144733487403604,-0.029620902939766342,-0.1187469651761631,-0.04586417770311737,0.019531232941756457,0.12295905639575745,-0.0784170328789022,-0.00008978982727468817,0.08064286539520393,0.04484041492053674,0.11599857518213559,-0.053046228148053085,0.02198495101271407,-0.06923749397657243,0.009164929853343943,-0.04654524455061373,-0.04505766239635354,0.08903470600670557,-0.027071437556987755,-0.1124929208888638,0.12099690240739515,0.08654495144168706,0.06550749242001806,-0.047891871730146106,0.023499415101107504,-0.13750946519663473,-0.12983727470746206,0.05211003914707182,-0.057680645848631654,-0.12577182104817955,-0.004299221562663734,0.003628409092209429,0.05268084800900663,-0.013804276221232693,-0.029927264837982998,-0.020388994744606537,0.008506280625240665,0.07602622267148142,-0.06135248591189845,0.010318037457398191,0.04894366271421346,-0.024789349210567493,-0.032329007553560496,0.015391716571137205,-0.03283559845061204,0.10262248027815311,0.05675817607427399,0.014255073865138948,0.02533688152362131,-0.11638851887195109,0.08326069617494715,0.03263221190355286,0.027802392565343864,0.021059000719891804,0.02986531939555561,0.11897302197975856,0.03897951207589429,-0.11314481899419492,-0.019816575265182667,-0.06643501393831376,-0.04272364810710311,0.008886998179190348,-0.07319798888196744,-0.10849364158827073,0.0760491707485468,0.03935838983617698,0.05163004033790268,0.02775259918735887,-0.014168664496560601,-0.027814694579542047,-0.08150341721822806,0.10619569369091936,0.08310355472985663,0.07644239081925762,-0.031095456306173646,0.05413447761495862,0.03672446416944771,-0.07782501338896552,0.0107602397301526,0.10238153654602156,0.015459533128807417,0.055509046898837476,0.01937892183315769,0.07193873669816718,0.11468069265380199,-0.039203756768109485,0.021704874927262512,-0.06620479922109852,-0.08678171588977734,-0.00517315513382323,-0.023013742030764995,-0.008753317110005786,-0.07550430252138224,0.0017543199220818202,-0.003492508498322289,0.0962091708631015,-0.005349543701846267,-0.034979852325818274,-0.09115373149206644,-0.1418474413090768,0.09286047761988374,-0.1411118624942095,-0.057336656204949876,0.04513552748256197,-0.09058238261098579,0.09618845044397156,-0.04921036457898563,0.09130084765712573,-0.04267098585130224,-0.10601537051176789,-0.12113996434409731,0.03170771708518113,0.08420979741884957,0.057700740368510195,-0.08687667621062127,-0.054363388847502095,0.05094388526027944,0.1287650814566202,0.050330061334046425,-0.03977219912328323,0.028752708480236387,0.029208352186196194,0.18899257541365502,-0.10455484978918354,-0.02816332448095959,0.08655517929202057,-0.02554514976756627,0.05141191442516672,-0.03835821444003547,0.037679824415933004,-0.04255908473686843,-0.07328854539152874,-0.1531977145461745,-0.2076393397256234,0.0179835800239548,-0.07451599912116172,-0.05982856638100639,-0.05891653177446439,0.08689768603683183,0.013274050237204732,-0.06324504875334297,0.06247391169863684,-0.1690802753466543,-0.021791721510559074,-0.00536955286127258,-0.11789862985305416,0.025408035299328866,0.10241113660721171,-0.09635696609663573,-0.05450543174097063,0.07156594381278496,0.007903569610516484,0.0075842605023535665,-0.027115012221487485,0.053259473337633825,-0.03795436734554883,-0.04390968010153446,0.05790435119610787,-0.08848073914112232,-0.040699167525151535,-0.04777514019213786,0.02074652711831836,-0.03530756470106731,0.05046296895753105,-0.006166293070463733,-0.08618049048042067,0.0005564082063809386,-0.043540844417854815,-0.16265816486630386,-0.023585528857154873,-0.018748214619537434,-0.049013701937527854,0.09875641427428114,-0.10825112939645419,-0.011371839077719652,0.08920958146643829,0.09330775705456472,0.052773970356364254,-0.2011206260820236,-0.07524743886495963,0.08249046226017948,0.1058059810392806,-0.10654518101316451,0.056537240035779444,0.031878927214814404,0.06114986803801504,0.04079474294548073,-0.03245395472929024,0.10631673550525984,-0.051171213143985775,0.00974453518217214,-0.0583661619190749,-0.054020103879779485,0.06667052341368691,-0.07354820834811673,0.033655931836141864,-0.05150962511059628,0.012837932914034662,0.04634639268733891,0.023487521788232955,0.15317311744369394,-0.09824978523823998,-0.04899573700668696,0.027479471328763543,-0.05542066190273611,-0.021249437420848456,-0.03645597703238032,0.08287118819479816,-0.025492328324347856,0.05090163299222893,0.06808591975741128,0.14320693383910416,-0.01238337248504472,-0.015131960621886478,0.07417676657725202,-0.06758023565922892,-0.024584829613808618,0.0717982475992717,-0.024274721150298894,-0.049025596512856665,0.024046000861472253,-0.04862851359602444,-0.002073527570791974,0.147643239941764,-0.02742097103692492,0.10455610199175853,-0.06309828860233109,0.0219842236945814,-0.11246259562489816,0.07248598380440714,-0.03903603545961456,0.045797956958559705,0.020546518570512724,0.016302841693051604,0.014047940627514638,0.00838544597965334,0.057939698927557064,-0.10554589167906635,0.0041819801520243975,0.06105385320210749,-0.02117033248073027,0.10851474055367535,-0.08427326418433795,-0.0058476167646469,0.16093216355120146,-0.03359687446783115,-0.05129224682188356,0.013196631813574658,0.1380263148449716,-0.12493436274525153,0.05997184693924685,-0.06622836550791482,0.08308646830221314,0.020741791018394136,-0.05589306188483058,-0.0015216861901834473,0.016291115577102586,-0.04104576333067031,-0.03623446381235331,-0.10702577714915759,0.19236335233803853,-0.05574494946971146,-0.0021594042694973695,0.14384482051001607,-0.007571477687973673,0.08551420540561223,0.038033284496072454,0.06081286883548691,-0.024357098319204164,0.23037556416168753,-0.0212014602941248,0.11010982192634163,-0.01079857495119729,-0.04986977845097156,0.046490501784623536,-0.106477948914425,-0.0751440997221318,0.051450016832184906,-0.00012901601263646422,0.002916062121330486,0.047602809046256495,0.029168098686222176,-0.17548809997457654,0.13560129719852249,-0.10146883402333547,0.1126904407741995,-0.031176843551176867,-0.005453036461958336,-0.06740482606751172,0.0261544824017965,-0.046722128940531814,-0.027158803632828996,0.11511574800480458,0.012106559215790756,0.07603988204332143,0.09792861010873323,0.06805099893032049,0.16887381127812226,-0.0425696611635995,-0.0033126658509585525,0.10065773826887357,0.027298580243325515,0.012775636747060263,-0.022351948620294677,-0.009004730679427638,-0.0464572051055106,0.05116628113657441,0.038374167389812,-0.0512986505660423,-0.03886445680577001,0.019274382596414303,0.10017550862213442,0.057796565594293636,0.030955518250878892,0.003364625505868319,-0.0424775123258528,0.054173973506286166,0.06152584878412741,0.0493651105390367,-0.08908322000535976,-0.07751870196292841,-0.036724129080984776,0.14160119294040813,0.055652717500433255,-0.02993481402380266,-0.10371652516097682,0.07945564146363715,0.03569663270282919,0.026769867617140695,0.050156315464554374,0.018251059995120566,-0.03050850691445303,-0.07042469939475772,-0.04033495872068834,-0.01734316088121645,0.11434939426865959,-0.026706731981911095,-0.013970681521822318,0.08848058526869422,0.06599859953504945,0.06043349715089423,-0.023313582011296102,-0.05654216307034701,0.029206329154801584,-0.00009598933325119363,0.06071897071853201,-0.040426823233924304,0.04946019163459036,-0.07298508672383318,0.029222486022682858,-0.05354595568090492,-0.10835484690992093,0.14499026534110795,0.01830384269491414,0.041329427837657334,0.03532107602865709,-0.08273531708436363,-0.05790007141728931,-0.003942101236637131,-0.02404497963319749,0.05761267711076735,0.009529295117800679,0.0027390619531277877,-0.06357339624297577,-0.0778121727023365,-0.13717539372974494,0.07273895019977193,0.07719274661462289,0.05092570587723325,-0.025708960562637617,0.03961386566652,0.07677074577261524,-0.02214973827560929,0.03132551322115492,0.04020577953421984,0.04003210610955273,0.17753299726214677,-0.0755827988003846,0.10617082473579223,0.03737786405322762,0.13740493047844976,0.12387548764508909,-0.058272710700806224,-0.022861302234536845,-0.08882702868103001,0.17178761281335964,-0.04830354959885859,0.00010412798759485122,0.04154103806420105,0.004977094231917438,-0.04772149331825956,0.12813342922544893,0.12634007681407208,0.00713881030543996,0.0518896954882014,-0.011649560217397738,0.05377860160422336,-0.1118469039700258,-0.04079790100232849,0.07366640774777387,0.019925312774178645,-0.17047046205025584,-0.011961491939773137,0.003477755064113862,0.0022489718609731385,-0.06999291187609165,0.023420621265534722,-0.06654845440231875,0.09670221787191656,-0.030639341776763557,-0.045607500162579355,0.028627827948316354,-0.042075388911346386,-0.0056431566287735045,0.1110626182264761,0.06413611248716725,-0.012251760808220524,0.046885970798340976,0.16962057390851099,0.08527345986234837,0.10789078908869082,0.009623868268493731,-0.07308406498035146,0.026089624145962578,0.04182665392127735,0.12339138354206158,-0.02560785096814625,0.017686355741004346,0.01029894588801417,0.05411927570833159,-0.05117058069122349,0.030261680476119088,0.010485951571275298,0.06573037450267702,0.12657050805734293,-0.12544233965998564,0.004589737536148422,-0.021720274862721753,0.018457302307167595,-0.10726340003317736,0.09048149749957499,0.010489129570371295,-0.07739499951542687,-0.09781152875195272,-0.001236902459520396,-0.010407150017352334,-0.1353554950151481,0.08018919026164203,-0.03811045072847133,0.13903124829749877,0.04216765286623319,-0.05315244299888972,0.05545488452719249,0.015358446813496905,0.015231329978569623,-0.07402968039613284,-0.006713609321216285,-0.04835281294986569,-0.08086538899895315,0.046734657407245674,0.0007925820678961942,0.07380118184584876,-0.09659613926739563,0.04055476586937779,0.0015773005215569793,0.002202198941913128,0.02255355047148937,-0.07565075095518559,-0.023409081423845617,-0.03871521781644131,0.039258768658682316,-0.07182964087474307,-0.06556405999380807,-0.013512612212579723,-0.045955822441791735,-0.007962113587171187,-0.02239525100344144,0.0603154139768759,0.09070210630797942,0.019982926453082996,0.06567570592960734,-0.025227850573151397,-0.05656486919502237,-0.0028256903462724175,-0.023462161369000208,-0.13113810313924557,-0.04957615510730814,-0.0452061746964069,-0.06712876926444217,0.017618118857396926,-0.038672511498048324,-0.043289872001901035,0.2287238100835759,0.08010205557379262,0.02779241166793885,-0.0655275857055553,-0.10658966255295853,0.0990898261390959,0.12266996752773544,0.040966304823763074,-0.016489814618223173,-0.004801244135130059,0.04649665916549748,0.022431878699398534,0.06928781743162685,0.005774918484181189,0.048623486905691994,-0.004392507603524599,-0.019665128739774083,-0.026683646783746233,0.11405809724874347,0.06426312026927952,0.00590961324705881,0.037230562556452344,0.09386720154387435,-0.04618856408277484,0.11276047515203877,0.022073212513431348,0.09905679652273931,0.06990975700076761,0.15388832149467294,0.009920411022350181,-0.016244642805774125,0.18288106189123632,0.08640586221029457,-0.01882998813042761,-0.02584033254142647,0.1939114479792053,-0.0379734056407357,-0.1815487897250071,-0.08424106860342391,-0.14630743527552206,0.06407125471059869,-0.034525652652718314,0.01626130725254258,-0.06930862980582868,0.16254205658395543,-0.06238557529671717,-0.19046957123645294,-0.05473642171243734,0.10041066561471751,-0.046158301923498346,-0.08937220702669876,0.044735138991904434,0.18763218684781302,-0.045360838278282356,-0.05429495302690646,-0.06721709697473874,0.009893483018330602,0.02188217049173936,0.00014316008969016987,-0.14486382482378454,0.024187175766498006,0.09147906771654013,0.03541566418455629,0.13875154122862865,-0.019556274263596005,-0.02782035967458266,0.013953462225468574,0.07039538821194367,0.054585258598014774,-0.10912572160337247,-0.058908045795038375,0.0639709970616811,-0.022231922827490244,0.055433196334409206,0.04981376205882989,-0.11663444446897701,0.015564493728410655,-0.05877223469284207,0.014969746254002042,-0.1350929381088906,-0.11581018221073767,0.14313937922035425,-0.034338661205195596,0.00293711584440054,0.04089728255880565,0.009683639743042968,-0.08464061574396538,-0.035138943633237524,-0.0048091530293024555,0.011270368518416906,0.0730673608392461,-0.02612453885732833,-0.06306506874409679,0.01364998774037016,0.01871152522300488,0.1557951850878252,0.05663720079264251,-0.07259212870152108,0.01909714160911804,0.05637080545057401,0.057001252198384283,-0.07681437171994429,0.002683062467517092,-0.00799881541098457,0.07652201206022195,-0.04546179431629703,0.07493874246876829,-0.03880170476968199,-0.0882978721638347,0.10675181386827344,-0.004411570429934333,-0.028409825666985467,-0.01626992996226402,-0.049435177084688975,-0.09208757542527835,0.000461773945990538,0.06215816947201232,-0.020339761243884716,-0.05829857816540477,0.032483566956350136,0.06995399315044543,-0.06736780911472605,0.06335129205929156,-0.05330171797629578,-0.03031137489069202,-0.08273746462413559,-0.05399061822097028,-0.09160254333219663,-0.17161170590854,-0.03151600050376245,-0.12128434535948684,0.07010664502314418,-0.0970508487973064,0.10424817107844263,0.08639684293266998,0.03598208082455459,-0.0659375013804389,-0.038536478378408366,0.005231459218035445,0.054015521294573106,-0.06633270909940102,-0.06582360612452014,-0.018941258616694597,0.03232174005370503,-0.0680680765569074,0.039753389307893836,-0.030707127791703537,-0.12372068935034593,0.04110303766752775,0.09850458139963966,0.0574504386802375,0.07706762263834595,0.03920745964522264,-0.04419850818993129,0.08087397409825552,0.05916102524881167,0.04880244000114621,-0.06746257140109639,0.06751795395507708,0.06550576637433173,-0.06769246417735647,0.05875379194902611,-0.06894058522268387,0.06425319631422262,-0.04542735099562861,0.12741658495062758,0.009008405377447676,-0.02049523238033802,-0.05822483798609037,-0.11492289635062299,-0.016683527981472046,-0.0431276870114352,-0.00926664651640791,0.0720555222831543,0.007483987465528023,0.059308700001174795,-0.15990155317059276,-0.04794077202266352,-0.013587632202864266,-0.05786799092517165,-0.01913021872619943,-0.0219766026634916,-0.019969808995873722,-0.03088103898405354,0.02549647999621181,0.05543721542806515,0.02231650477129423,-0.05857628536937763,0.018938336370983837,-0.07432552505418315,-0.08416741307637621,-0.004412550561610768,0.04884293569080971,0.11467889002939367,0.016732068491382434,0.06699158811511699,-0.050718099940077914,-0.10341280177802205,0.08516907375823697,0.008757888515140724,0.06414085976932828,0.036493892984187856,0.04940538815399164,-0.06253246678558305,-0.0367384646048294,0.028911044127039962,0.039155565254603446,0.03496615041737993,-0.11486460279824377,-0.2537255159952427,-0.044814930801133045,-0.1919399116095037,-0.042658748545969724,0.1301697641579861,0.01284721623599751,-0.0970607899252874,-0.009827356529289472,0.054414996776805176,0.024513232970146053,-0.06752705526957146,0.1204063099253116,0.031229418381392975,-0.03197854243778327,0.11202747822943772,-0.05192444690152138,0.0629244070785322,-0.027388502470125628,-0.03445204450622912,-0.03168370826940437,-0.019422749960678793,0.01614460933994006,0.03520483606239517,0.11971437949720928,0.02775518084485641,0.022526414683129287,0.010266471823835738,-0.003861453412974978,0.03078638023983339,0.02752341416891151,0.03719190413414597,0.09790283178115809,-0.06904248696646932,-0.06590446057214842,0.010445600673488951,-0.02219874499327193,-0.04250109206799238,-0.05449385295071721,0.0114049774396769,-0.10866409627569994,0.03124149900790726,0.05408688112893872,-0.19477250869617668,0.0065215911788833085,-0.10509121252387195,-0.0043515278788076265,0.05836840891361559,-0.003978127702237008,0.04430351277420697,0.064893422310521,0.038248759976515306,-0.021840832764144974,-0.04478805597275683,-0.0525207176305821,-0.000858323458738776,0.045254241198997076,-0.11772960026240091,0.062305729441615665,0.10594068767472131,-0.022300901523050073,0.04985929561041377,-0.06839338864061527,0.08226838767749846,-0.038506441495321286,-0.1044201616720663,0.07193572012077366,0.04771548836641333,-0.05443670822347835,-0.02205311853647084,-0.036559219650125714,0.024894188476638626,0.0068006127537965306,0.007123597461860622,-0.07481220644757293,-0.07775698450912077,0.13131988689916851,0.014900478430366492,0.026047893591880276,0.04231872188692097,-0.08345052754876751,0.08611705241613003,0.006666630056104499,-0.09665022096497243,0.07109497961189946,-0.007201592333165756,-0.014006251673708727,0.08130053066432437,-0.031006604861076658,0.06751397019507022,-0.00288534983726964,-0.06549749007643199,-0.009339037126178977,-0.057640347683638966,0.07617931340780865,0.049244578547761035,0.10794358563385942,0.145035565851981,-0.012743222576582678,0.04282888944248592,0.18912304310428218,0.1340355597655143,0.07961341988734806,0.09629503684401577,-0.07576299799013393,-0.00896052574087048,-0.019765922719880407,0.020529248461946818,-0.024399016347569486,-0.015049580090245292,0.016788142039610703,-0.04959165520839978,-0.001997431824255898,-0.00985634263697324,0.0683434955789923,-0.03013904537310746,-0.05878191693468343,0.07078311278601657,0.0606919537713869,0.05038888932598615,-0.17019251288589496,-0.07138595901573802,0.13580670842330356,0.08045686848428493,0.022926840794521446,-0.06053410146601172,-0.03872717686055907,0.07378312719277001,0.0965402033765376,0.13155809481628009,0.0024202681939699475,0.13380115659580694,-0.09088276705337513,0.019838028654270843,-0.030254625083366675,0.07021346605720308,0.00977676788286715,-0.10650384644302435,0.16466937721907982,0.025037797001536907,0.02037973647167899,0.14490988677359906,-0.04360333160515061,0.003183357938689613,0.011451748446363519,-0.02401965516488233,0.007334007976645753,0.07155210102556185,0.01619326987415712,0.09829992415015454,0.030328183381069334,-0.05642021376876041,-0.007979352587006522,0.04151968267390678,-0.01668350541457304,0.06671776175188551,-0.10680040409289039,0.07190813737092565,0.10789763786285692,0.10098886144445719,0.05198980303117307,-0.030079797164076334,-0.040587110326641335,-0.009747530020140033,-0.07554549678695273,-0.09660106514253293,-0.006989621341951088,0.033936916082893294,-0.05092278374975837,-0.03407311968918469,-0.05544924857838594,-0.04738994875679626,-0.041240344972485944,-0.04581179220467341,0.008134927723737828,0.029542937234747255,0.02963623971637508,0.030829704636037875,-0.11063514057687038,0.032968082180472105,0.01602514486188603,0.009681891057239428,0.003334903860177549,-0.0493192787833519,0.07046055171128451,0.0605505379430557,-0.11614177830140396,-0.11820841174405738,-0.12684127420954944,-0.07515646782118775,-0.03957452053423385,0.030756911316673418,0.0686291878954156,0.08849335018625036,-0.10630252171380243,0.038316746824665654,-0.03752334311676096,-0.12863029663739625,-0.1279872430444694,0.05024310853436366,-0.020191413333288173,0.16879878240401192,-0.02137015240160229,0.15602733085716364,0.0727979833610594,-0.053486901037757044,0.005123525997505741,-0.12338217527733336,-0.01616885796594046,-0.000014348759161601132,0.030228943194147515,-0.09569664421879003,-0.032372191459126336,0.028552085884059237,-0.05644862965928245,0.1344079662042562,0.10830620256241189,-0.04852191854894247,0.02902824302406822,0.005609469802134299,0.06556962588700817,-0.004266113554678347,0.10380853886997192,0.04208261899862632,0.08106481923470653,-0.017967709759709773,0.02486839826215684,0.024679148937597165,0.044616647291963796,0.12214983442277921,0.023660920850241473,0.021412910229949574,-0.017274580570338427,0.15753617241783757,0.025153839316626125,-0.004943119457948159,0.01450498233964118,-0.03462377159643439,0.012803564801853453,0.23923306360166546,-0.08868908647636813,-0.028542525469717573,0.08313487349577495,0.01561907415657001,0.06894978589931137,0.061646733881773386,0.14933620669994468,0.17302241717398467,0.010632080577311997,-0.03861985702344439,0.06240895534669107,0.028400594634094768,-0.01676750859815327,-0.05192353993305423,0.007482630195324267,0.027101524185656367,0.0183555682526361,-0.036150216086934875,-0.006897514706315213,0.08350628254727135,-0.01799940792535364,0.015055742843273708,0.06343538926637396,0.011032127712654978,-0.022630065087473936,-0.0029562255470766624,-0.09646938615668803,-0.03617639302877117,0.15285920995505325,-0.05723470557233676,0.11459838812251645,0.06403350589844217,-0.030593941107581252,0.0354959085195651,0.06620404630368797,0.1592843186423169,-0.009771430812098629,-0.05743402736556298,-0.023460106167752893,0.015777420142909792,-0.016849035087664055,0.015015071888418826,-0.09042987426491259,-0.055791606309360274,-0.0315114881685669,0.010633550987082638,0.047668136080536216,0.11042621151036382,-0.011712364464194493,0.037761548982527315,-0.0396877737488321,0.06513260850809226,0.045753883686924623,-0.019607339251980917,-0.04028829639777912,-0.023059919200125116,0.24171667914184314,0.07965629459367371,0.1407723893699317,0.0756310034812564,0.040066423899330815,-0.0511797786253438,0.010329440404497077,0.05894814495482409,0.018406334695008148,0.012820662046396206,0.08864499147148547,-0.029897927979893994,0.0493762223702241,0.12541793721286784,0.1820893046497017,-0.02265518183544771,0.03793540267986906,0.026193688430886746,0.006732647607237804,0.06755669073306675,0.012499311547952459,-0.004000333611259004,0.0011843314273532186,-0.00005857859163596657,0.14817849614997158,-0.03541312928208428,-0.07356066433522335,0.03925310154975024,0.017782510925921913,-0.0006927321509626361,0.05220784561993333,0.07980821690646384,0.021240198466849994,-0.0356613970431777,0.07684685547755128,-0.011494196094203827,-0.016390005599455835,0.029220470470232046,-0.07920436462645197,-0.06223626845342253,-0.011603972383898941,-0.07583569558162108,0.14678792217126055,-0.018747432214015935,-0.005990831430443278,-0.014033516265813445,-0.041390444653414744,0.021134575814218612,0.017392509088399583,-0.019169383040809996,0.041686550034475765,0.011093706803757632,-0.014403786783656773,0.04110875282483275,-0.1192219479584828,0.02774123553492016,0.1277662281249919,-0.04116408918967843,-0.009963794745229956,0.08378739737871889,-0.013208880877284888,-0.006220677292804495,0.08786257021764615,0.07640237631052273,0.18246270024964478,0.12332134604275921,0.025054385111089397,-0.14870594180471974,0.06978962823592771,0.06463718562509642,0.006475373125232381,0.08047277385172097,0.07184108607214619,-0.006078870169559007,-0.15829130090635943,0.049575418300480914,0.008763317137323945,0.02893836818858801,-0.08481207647801077,0.052514736948428224,-0.03094958118571852,-0.0685916207829606,0.07447236748495219,0.012973733103147136,0.16623135872687525,-0.019153269971788903,-0.057481352950291574,0.008268156979606488,0.008963960603669606,0.020498281401034355,0.012264225896754903,-0.03674052693293792,-0.026266924540459567,0.12299953738321473,0.09970723865865257,0.022408175003960987,0.027766279061838525,0.05362050931482643,0.046412796667074666,-0.024595082846110294,0.0494145413272131,0.048121113205655305,0.08143730628127195,-0.03333188725636474,0.0005025574571777189,-0.029258497066145483,0.024068591903252612,0.01691853568590099,0.05346580695915452,-0.07525027596993704,0.04778768146686358,0.05631012745120849,-0.03294604138086433,0.07237842827685802,0.12819318032678112,-0.07755917564479528,-0.028996689326751316,0.014043083261757459,0.06152728035784939,-0.0006553658872725127,0.13035045938632148,-0.032251271278170526,-0.004913670974389413,0.015669900054408232,-0.0714558638749277,0.1022108353389309,0.19027001650482844,0.03573209586298809,0.1701053288979155,0.06120368414009814,0.032351381265821905,0.009427816330170388,0.02408783257789275,-0.16254272259187275,0.025944824248557843,-0.04586201840400235,0.12171809400969341,-0.023965031821807335,-0.019458281015318893,0.07511788488271058,0.011133577853216498,0.05665275369849095,-0.16630617196555456,-0.019924851959090332,0.07736895212980809,-0.05723971838461442,0.08651440487896613,0.015070927400741443,0.12504193444615386,-0.15432365811669982,-0.04601683657921086,0.02441166235818702,-0.12805161995834277,0.1076201332186343,0.0319483292906012,0.06575447486391767,0.026928592412668078,0.03065598799499312,0.11134451910262497,0.03863794364343908,-0.12204773735580392,0.1052024491158142,-0.15368843991016565,0.08942060586287733,0.06656120585468062,0.20735817409508475,-0.009547669990642434,-0.04536217100139004,-0.10849083137514942,0.014130861770901311,-0.04973182787911151,0.06360577611618747,-0.11086945467768002,0.0009548158516899086,-0.06862298781281789,-0.06627988373804376,0.0283717668902842,-0.0541708053568178,-0.005584866024731897,-0.09247530351517277,0.006921663931108594,-0.06700394960874796,-0.11344369703289248,0.07181216653028816,0.07591186427539197,0.17737971276269854,0.014406845760529424,-0.01931657329371205,-0.03689234012970398,-0.009772929763276206,-0.006988177663409439,0.04204907732267748,-0.25603477239801065,0.07844448263200048,0.018792939189714305,-0.0736699372646882,-0.11210586699983396,-0.029750611187476843,0.06122204570033791,0.010721565808843769,-0.02433699715418184,-0.07658672678682762,0.03853629274561568,0.043321389510847484,-0.01777086252773646,0.15420521897102063,-0.00021871508772615405,-0.13664643379026972,0.1330820787219143,0.058423980108989526,0.022603251315524823,-0.10404864239380944,0.032742660672648125,0.05541480881928807,-0.06798035022527267,0.027860842223551764,-0.10342380766714052,0.038435417006290086,0.06656546474893144,0.004830264459207671,-0.017427373349290256,0.06705998120940168,-0.0783880197354881,-0.14578767860602707,0.031007545973641342,0.028123519719380822,0.02748922991867316,-0.027560638970280885,-0.09653416288572218,0.014001414006183136,0.05041331612997626,0.028521852608058174,-0.04240591153303161,-0.022770070821304705,-0.12456814851394506,-0.015022495590784621,-0.0766531133208213,-0.016291455417786763,-0.002701902058817877,0.001409881169703295,0.016354568411481793,-0.0748210404054937,-0.07779853360402558,-0.0970426890204612,-0.04526694074369996,0.006650578595719691,-0.022727208807110273,0.00003185714867478562,0.11039384533221233,0.08016129086101015,-0.11216121442182737,-0.07078129484966617,0.05430834485250925,0.040998292970364225,-0.08962405693823274,-0.07320611867443706,0.004855293464886474,-0.009712757751917683,0.0010004640149744314,0.05106302060807856,-0.09980688663544386,0.024776368891172372,0.12918778397204475,-0.009880251874557763,-0.07065810287430856,0.07729463621274346,0.04633996570973187,-0.05203410949075107,-0.07074676858364295,0.07882320695788458,0.01202133859404723,0.01627674557964058,-0.032877911761569574,0.034501533921186635,0.05342779864429848,0.11097755171564572,0.007722148567898067,-0.06089739367355704,-0.04401871794447424,0.013254483962435752,-0.0127773283817925,0.032411545282580244,0.007182835142071047,-0.07976583319088112,-0.1281140378975397,-0.0355422096423781,0.024445799148427268,-0.005673793479839159,-0.115793201209896,-0.0747777996777872,0.007273582338397307,-0.039618303430988315,-0.1028900072404123,-0.019547481207002285,-0.1299621377788095,0.03144478144209177,-0.0022899964360723795,-0.02783049137218765,-0.0062173126021476234,-0.07377817815428905,-0.013486022939466174,0.08334145991758529,0.060464065241234016,0.06945739117200052,0.11777219969664278,0.03730226954798037,-0.028256187804205052,-0.13070568088996515,-0.042672410054131825,0.01668330536239684,-0.11144640916339572,-0.13285008080913507,-0.11870791237584713,-0.12383381270583878,0.09543801991903648,-0.024905927191900663,0.07670044653993638,0.037063549454543536,0.016228833044931036,-0.0055900581351225834,-0.04298498269244573,0.000588475011262953,-0.013194989988674006,0.023294633887516736,0.01106778428969104,0.08609732811226324,-0.10274394898356828,-0.00045051646978494953,0.07805963842328384,-0.12178318855905135,0.11884019564638663,0.08705675819304759,0.06716703515719263,0.038932511350092146,0.005403320593304731,-0.048309618117629974,-0.025127555604841513,0.1284465824483619,-0.030587575087213385,-0.11460010434372588,-0.11973460462020817,-0.055658076270123924,0.01004540414256326,0.16121678374176682,-0.0640018948164833,-0.12637681602963927,0.052386823616547236,-0.011122807002883614,-0.060623697905711135,0.02511154160206227,-0.020675771057274007,-0.10288114354770538,-0.035830421072730274,0.02470833369961507,-0.009146538874515522,0.10371638271471224,0.004873062122045262,0.10311490508117928,0.009917376246298643,-0.09989727651535903,-0.0660957059471298,0.0933735473917332,0.08693348924108345,0.11344531203146489,-0.06287572395320691,-0.0018062654926056384,-0.019509238602397096,0.07174475141306697,-0.018544449276454433,-0.03538199836862055,-0.013670299503399864,-0.15795264488918864,0.014711671262726149,-0.03301787136203043,0.02816590401160482,-0.012534576415447151,-0.016679826978765765,-0.06808977136767252,-0.12123683282855602,-0.06793810906326538,-0.026293693281610294,-0.17117266109708407,0.005603182269153086,0.09133732927431489,-0.05418354518332598,0.07063386708726097,-0.0213367366068802,-0.013341002028962637,-0.14329418593427123,0.033711208486623616,-0.004287282138624742,-0.06886531270860743,-0.03464202204087929,0.04649188225006872,-0.03047263191905995,-0.05833430744850252,0.022690440315873528,0.044629025896555506,-0.031294561707230266,-0.16218354347343006,0.012483072094077093,-0.02076626293922576,0.014677779123536818,-0.08063525570468157,-0.03847696418794425,-0.10454820370327204,0.08052358897550664,-0.0851797959987389,0.12435006960538655,0.07515662391497521,0.032020468885467,-0.019269186445066387,0.046505496137697645,-0.09881973742103888,0.13299669036128664,0.023831445993298117,-0.13122271879715308,0.03723214631019711,0.04420351267748736,0.05025363511252443,-0.1507617211026035,-0.07490963472151395,0.18621542886867976,0.02411593549363848,-0.17214544026422102,-0.017284890114991666,0.01818837637646735,0.034540281148763056,-0.02776199840536436,0.13993101148598133,-0.09403839993274728,0.01902983965777311,0.07712633952342016,-0.010345889818379505,-0.0006556978782019957,0.06784434117386365,0.025152963881877124,0.04420062274339682,-0.04557393280071776,-0.023587188327274425,-0.049570023182683665,0.07802814393206946,0.11624466176672167,-0.09648172975850632,-0.10320887529269433,-0.037394320918421965,-0.023071689923859627,0.016030780625329796,0.055514634439640914,-0.00752858481556606,0.02031490258854016,0.03999576549645137,0.13359461428971436,0.002546208800602198,-0.03747223782172148,0.18671037133427243,-0.054278835383087504,0.03720176744911148,-0.0027372684161926417,0.037968934808568944,-0.21650229363839701,-0.02317559697348342,-0.09314416768645609,0.07704968764904589,-0.014970890793417745,0.13077734338111482,0.03220459392251525,0.008815916851531134,-0.08826602746648995,0.15763996296523222,0.062200742692849684,0.03948235200979246,-0.04852425607712421,-0.07578558610662621,-0.03784921828694492,-0.048009074405905475,-0.14164005746764385,0.033924490610066915,0.07070563532867709,0.07126650126097636,0.041827833918832984,-0.03685497851060947,-0.011286415434853593,-0.0244053171523276,0.05644214665347391,-0.025778111469899598,0.05896328525895844,-0.06037965670869144,0.1544681788939015,0.05355072205799308,0.027030043868033055,0.07988850723760749,-0.1526042700775081,0.004071081728091043,0.07169945598376493,0.09583340319305582,-0.04478356605046031,-0.0040746177926736515,0.00037754370096755146,0.13512071334575382,-0.12323627225500061,-0.037837762091716326,-0.040250664993434666,0.04639776025876094,0.007226676582740937,-0.038155945488830376,-0.08294988732069049,-0.08418195004883308,-0.013547617020697119,-0.04414667881903173,-0.03794981268320378,-0.04614648385306794,-0.04278627830071367,-0.046075226388060234,-0.047870378978619475,-0.142315125096588,0.1207932516999331,-0.0589382283183786,0.08550381770446254,0.010118463025659632,0.0826327898131989,0.04622965914574801,-0.00014190859681833146,-0.05479979834623512,-0.022444045760103424,-0.07360165198520789,0.04396967284695713,-0.012583307565760605,-0.018051150817622645,-0.07788189189232898,0.040241476417483706,0.007591952641299405,0.07234887827914938,0.04512281900314931,0.007674402030132639,-0.1508696493047262,-0.03443886902195346,-0.008928696126390844,0.022598292413760733,0.13889591959465203,-0.04837196646673849,0.008461909092366684,-0.010444580460316422,-0.04273003973006,-0.14452771411325052,-0.07487707518902989,-0.022750692203307343,0.08738527071727936,-0.07090266793112389,-0.1688751720411493,-0.009563926465589831,0.03148788095917107,-0.03626849878935814,0.03347873025237263,0.03905679769890036,0.05548850291306632,0.021646809146785587,-0.030597426301948134,-0.17314812148098802,-0.008455621955504956,-0.026847601281373715,0.071313337622628,0.043179480653181446,0.12701167993811754,0.060829806749159526,-0.007038258066412211,-0.08421068740761015,-0.12214181881955984,-0.12594454935697566,0.017784346223441754,-0.01680439907197897,0.09093921320586656,0.08562564805110656,-0.08393556412287109,-0.027755210720148596,-0.16246034224588798,-0.0694404636664389,-0.005563020137379721,0.031250922281983035,0.03989600382291957,-0.01803047946993342,-0.07379088160044722,0.0704438232475499,-0.0014236249685153706,0.0011013237202390034,0.08718999876214725,0.07805972949455685,-0.06554038237506213,-0.07414212001592077,0.034266913562121255,-0.05431529201856574,0.14332199467581366,0.06988028819600085,0.015535501096575054,0.1298583967027943,0.005803325927446663,0.07136695742472109,-0.11499637841756905,-0.08253169707761548,0.03128833808810954,0.05237805257632387,0.03357364210215275,-0.03155931615968859,0.07930641463421843,-0.06430805635118779,-0.025338000624564705,-0.0045821189450831685,0.014577544168324725,0.024427665205149298,-0.002639881336136773,0.01254325704316709,0.10796006306085187,-0.10865266039699037,0.055450457609533876,-0.047664849663688814,-0.04522042705750009,-0.01247713629019651,0.1494364654962455,-0.04097306598185346,0.04938652802441007,0.03439222715390814,0.09389431489006353,0.07674537789128086,-0.0659195949494191,-0.005181545783668369,0.06086674392116177,0.06329333741751912,0.04473895563576092,-0.10536257021485788,0.005606984199091249,0.13841226887760147,-0.019080186600359293,0.07676808862922396,0.20409556756533154,0.14574594920733727,0.0994025463987154,-0.0584408098665328,0.10216231469914054,-0.11164899807938539,0.14120363440456735,0.07678623760227238,0.049402960983060615,0.015353482956520208,0.05866005032794815,-0.04098891066949155,-0.06960954567049524,-0.002625844147915901,-0.006302445752059488,-0.01887779447896819,-0.016703390237229176,-0.09272848546366728,0.0410208202504938,-0.0585057916472181,0.050800143692811585,0.026149432737223196,-0.014357386330257911,-0.06033786831979636,0.045619059217045864,-0.10032646847569895,0.11303839433392604,0.09492152839376411,-0.04021390157940949,0.027236448191248607,0.05560632886602203,0.05692415627557573,0.03348068015375652,0.022642896523406893,-0.13888207806169242,0.07771121700574488,-0.04375602588084777,0.008973277143171416,0.05838685014149775,-0.0701915027815632,0.03832677952978353,0.01875472369315204,-0.12267748519496723,-0.055657726826810944,0.02440281185409657,-0.1188744178911359,-0.0842804061735584,-0.030218259661031064,0.09681822303053506,0.09735098001376077,-0.11447826270121941,0.11215881348984978,-0.044645474704342554,-0.05617694224271156,0.03663039413591391,0.06151619556310706,-0.020347375941849544,-0.0015294053776912855,0.0910332467622132,-0.13250780088879996,-0.04643590062891214,0.06927455346678865,-0.05982543470029448,0.041471458028462256,0.05031302195606661,-0.08757863461912027,0.059946339469791166,0.06604202124592706,-0.11854528345437669,0.08420794278926216,-0.030327589932916715,-0.03796527581702724,-0.11782359414205382,-0.1718482105494195,0.11747233754161907,0.049922005982184776,-0.06940261496287607,-0.03237976021712353,0.01856419832498045,0.15607243462159284,0.05947661382945556,-0.2597434664720838,-0.002494666229458467,0.11162219941079025,-0.08716909414160658,0.18225269311299147,-0.041750202439866414,0.02377101811355719,-0.015174900300892252,0.032729274896879046,-0.01716629024998031,0.07968925333084502,-0.023052131523813375,-0.023787469511519985,-0.0230665257711923,-0.027832561253784492,0.0657618822957083,0.031629230418294386,-0.13525200050738517,-0.04988737003547719,-0.07012445870179543,0.022734904798229944,-0.049732292906773466,0.024579506763045225,-0.07218867050586938,-0.05217512385160897,0.024216693717297864,-0.10092460240327558,-0.06153731984386662,-0.06315085206032875,0.09342275314590215,0.18555709047544572,-0.0162371989268458,0.0312817161588796,0.02079700343730226,-0.04343391007143024,-0.10425515650353355,-0.08121589814742837,-0.009546164748391423,-0.07782765761810238,0.030537315304730358,-0.06986757716863373,-0.09707399516240803,-0.07262855619428361,0.009546046894507257,-0.04536427890234629,-0.050949754121698505,0.03124300459679564,0.031942544270301465,0.031098747400258114,-0.049647802114841585,-0.03579782111204686,-0.08186188833040155,0.005404219535583293,-0.01719163891281839,0.08486025095106593,-0.06340609157464314,-0.025007940259070934,-0.006241954148707887,-0.09633189791634789,0.029827296507103314,-0.06064380931539746,0.08534146828791667,0.08961859749562638,-0.03415918050667298,-0.06735835562761859,-0.03782356358612968,-0.08127155076468721,-0.0689446938020617,-0.05249950684713504,-0.09988652695840504,-0.06171149118191986,-0.03805751807287036,0.05566174443141261,-0.025891214133343055,0.06402508016234536,-0.0007131640471980234,-0.07967937232252756,-0.1057179678485205,0.04535631437433599,-0.056769051172841214,-0.056597539400098915,0.09919015665315856,0.0074976731244490976,-0.11470395615311971,-0.13256405321018983,-0.029384491944255808,0.034729075166435,-0.22526621573542266,0.08784017404399216,0.08500943831090607,0.015187714205682903,0.01727198029553676,-0.09159213690607246,0.05524712287412236,0.08274914763435968,0.11552563566867176,-0.022697946203941277,-0.011149837968212315,-0.08449750281646669,-0.017585116323784837,0.004707622978022148,0.07879947446321443,-0.01843577565079328,-0.08081897656313039,-0.039187318831452024,-0.03690736818726248,0.0012140397796839082,0.004597858017425469,0.11100114534782703,-0.044303560733099524,0.10803457481556468,0.06168809422477898,0.02695249407153931,0.012268176734335102,-0.006906493989149891,-0.012451922240812303,0.08538808490384202,0.063762813469454,0.03378660868367101,-0.11065341101313192,0.09080467655097932,-0.014919805817654534,0.036993412583884756,0.029449930881405937,-0.07272443949537477,0.08022101841630375,-0.05623585525406107,0.050208943006683375,0.08037069259537902,0.053613623251848395,0.110372914055803,-0.010458401335681006,-0.031448318642290446,-0.0835560657437341,0.02564012936234424,-0.029123306292825182,-0.023533018304958853,0.03271846655946746,-0.016988763744828946,0.07171904945462558,0.0005261274890679273,0.035527433311326795,0.0558890257650074,-0.02668375277092738,-0.05250910096439562,0.11321269530047866,0.12585912091905577,0.04748883808405111,0.11529826728949635,0.044925818121035965,0.10761724096908601,0.018581683013468943,0.11251478974169746,-0.11547253954529153,0.04898989993335028,0.07542528393721798,0.0369006047343168,0.026376861816534883,0.08446057452474519,-0.0005955911341609073,-0.12914138218569723,0.07841903671640836,0.003620513989537603,0.018074696294837954,-0.04739082407357258,0.21814822481444351,0.03025467402096023,0.1507284703988024,-0.007098345945492991,-0.018025439396208924,-0.024485506070046976,0.011335333402620433,0.005654897122873809,-0.06112330562812005,-0.15174086357017477,-0.08859913068363483,-0.006268836382888191,0.005753376143579711,0.07178052464300608,-0.06494869957613068,0.04592831868847883,-0.02797932987152985,0.06360967999860936,0.019113148734087797,0.01832688759907467,0.06589047629840412,-0.017885332739065087,-0.06594799183867815,-0.029771977609207367,0.02543376253048003,0.012026053623308297,-0.002337691184827006,0.08197386681576467,0.13412843301441943,0.04154539094029968,-0.16432858261799616,-0.04152494856891818,-0.0374109768055153,-0.15118130392603307,-0.1178054094961099,-0.027026089198496476,-0.03310794427501379,-0.0930667336370059,-0.11590764647011928,0.008165678950018403,-0.1762605618975806,-0.054728487683482714,0.04478934826848881,-0.01793876340224469,0.0235994493655393,-0.006244911058378506,-0.11913891774098785,0.13065535960791472,-0.1060986904583508,-0.004468522739559451,-0.06074566724774636,0.03703727528506062,-0.07482715540267823,-0.06213478728497567,-0.044872701347986856,0.07005577338338301,0.01892558322558723,0.005849226969151907,-0.07867692993182546,0.027602025465650302,0.06267422993580345,-0.07612116669113161,0.11457906153691681,0.10060182679107216,-0.1873510217815829,-0.038047638014203876,0.03858086675078668,0.044544510812942965,0.013544209247929083,-0.15030270833005516,-0.011334519450602735,0.07899841061333651,0.019277246814248795,0.1055108011754059,-0.1733966166364843,-0.165601805382838,0.015707245516415027,0.027370550119247213,0.04438405179340122,0.00597117581030709,0.07891041173599746,0.08259813902045479,0.019730957475078036,-0.04488591587491753,0.03491847482785579,-0.06875604370374673,0.084843107391085,-0.059500606614531534,-0.008090322681248594,-0.01673117799454955,0.0398453959285405,-0.040169716131550695,-0.05070337151181357,0.09379398702439233,-0.07303765125924315,-0.12500422170666434,-0.05547762435074056,-0.02581225000459089,0.09845366546759413,0.07861671326333775,-0.05955501229143067,0.09170294795621221,-0.02943374075166871,0.1672339070721177,0.005987846273985685,0.006695243784534663,0.006193490631139989,-0.0012780597167292027,-0.01074243331227562,0.14618684865610065,-0.0971922088665597,0.034438598550456966,0.0024943226467994384,0.048809201200424826,0.0012614767072157973,-0.07270631364743002,0.04679423502817958,0.07823594009227959,-0.053174953491033024,0.03371026497892667,-0.02172133002871139,-0.002360169195989382,0.10538280916659729,0.14111871460106368,0.017292883171528512,0.06876997533044153,-0.14453881659213838,-0.06719650926234381,0.07541972959283332,0.028622659657803966,0.049000401678124424,0.1285198396495175,-0.013779959816019847,-0.004841980648065715,0.03139692749625165,0.0787111713743795,-0.1090775073990227,0.023116399185303265,0.04147415291855709,-0.08626729175537798,-0.04947491319278551,-0.02521318572751663,-0.06071613909336456,0.10257285841507377,0.04075150692856303,-0.05887439990698656,-0.09164929076904245,0.006107284587447276,0.0327240404250384,0.018862836410400777,-0.002336701187683763,-0.021073485435290387,-0.03966925879134269,-0.05269606548121592,-0.030851289250431218,0.10464679561815489,-0.012263548196942245,0.04257679047934482,-0.0574850915961775,0.10209942381683398,0.0862377423851066,0.0682933316925097,-0.012811475927190882,0.15370240405452473,0.007129977480095714,-0.0050414335841077,0.06726587068505026,0.06736660125811247,0.10448919443135435,-0.05554434782139364,0.03840250680611652,-0.05985462191179551,0.04772993254383674,-0.12285436776976524,0.016113463036374554,0.013491778751981053,0.009611607205949176,0.0619652757478009,-0.013525859815210529,-0.1130111493716248,0.061860801092004376,-0.0829245168228136,0.0016691079744655848,-0.027955032224092343,-0.023750931795931636,0.10200318597164468,-0.02110560405651388,0.024390396014021976,-0.03622912341806769,0.08409549330996358,-0.045305420898875834,-0.005911169344804188,0.07530184612205602,-0.04961229510821521,-0.004558220554787029,0.0534095815583342,0.04924478189974394,-0.09277219593335817,0.04211905343993669,-0.006474276933245259,-0.08850003932369478,-0.10397144448291931,0.03034711543623761,0.107728621206351,0.03169961327860298,-0.024440694732236163,0.15925486936232566,0.13872981318396396,0.010587170736160893,-0.025523610048184195,0.017664902651735096,-0.06251794787093873,0.10475545486385521,0.023870713052406917,0.14640546520883527,0.0015682845233982291,-0.03394653375395721,-0.03764715016490383,0.05055007128022247,-0.07776064811569791,0.15893589190344387,0.028413730781203596,-0.04522738707582867,-0.004283000112608615,-0.03180605982507984,-0.021265680178056648,-0.062076750380881666,-0.039787227587454545,-0.02358003913334334,-0.16037923490480113,-0.11408550634350131,-0.009561300646230692,0.0070200259757621205,0.06452614755756039,0.08506779863312337,-0.020260296917436176,0.04925076841065765,-0.035221281003054904,0.13918646549613484,-0.09412504883140928,0.020446424382635903,-0.059297305023914504,-0.005504396773975292,-0.028138233775751344,0.003428971025640128,-0.045323027736992066,0.0882999014001396,-0.0041054287980970255,0.004072071613245031,-0.03263126461276178,-0.04880131011515577,0.052884772623884406,0.14337068204680656,0.07141832176710905,-0.05796494757561054,0.1012117159931961,-0.05531191902574214,-0.09495443973045983,-0.20397407652783486,0.05907220180174818,-0.00868934344582612,-0.09119786612877337,0.008575657062732273,0.010350604705114464,-0.00859115648787981,0.0307254443094007,-0.04050206606110092,-0.02150530981677781,-0.13878645932434516,0.03596857295306855,0.15494418297198598,-0.04722220061551005,-0.004935478539890419,-0.10783779053687909,-0.11433094124488333,-0.11989550024144248,0.02040390327711327,0.02114061608119863,0.051370144976658844,-0.13941156164148918,-0.019143690112894258,0.0527418224729099,-0.07193762933042488,-0.05082716592714787,-0.07762420724375545,-0.1217876214023396,0.1040861760520576,0.20777148983551633,0.1597104062717093,0.02333350476674545,-0.0671743647293781,-0.017076768670989076,-0.03756884853225924,-0.04087011468970214,-0.05250272348376332,-0.11256715032240172,-0.03490644065885279,-0.07855831614856963,0.06340481039096484,-0.0193679772978179,0.07596994899361652,0.08551935568138985,-0.017490793370746917,0.12397101972698057,-0.01971072276724522,0.02553075435731415,0.08454719864344737,-0.06077367526143794,0.010756330393548221,-0.028029090404110373,-0.01750425997667661,0.043068523434568726,0.07965328542590783,0.12273977777026382,0.023706023972296545,0.010602742463425619,-0.0357680406810953,-0.0328949557879483,0.03434620376647255,0.14028845218163485,-0.0506850414900111,0.043934742457528486,-0.00405062220635004,0.011722811081077712,-0.017019003437459924,0.03216517419896228,-0.05271544141682485,-0.13013168178025172,0.0058077775613084096,-0.12078966779282771,0.0046303674779885244,0.040480051373603915,-0.017903935015660535,0.04146036210719075,-0.10580423412464006,-0.03199491866873382,-0.0037348655722283814,-0.0639419526730017,-0.012534428194333971,-0.06946463347343276,0.055638301914412394,0.005757252649426552,0.09866844538440203,0.0487756015972128,-0.019393628071372973,0.05320412176401556,0.016675801709844725,0.024395086413349944,-0.09114641524483992,-0.1104585267469457,-0.04221682497303583,-0.09481476920350332,-0.018371448374949566,-0.0007310096519784519,0.010977767686899426,-0.09471094731477535,0.09047047687969814,0.05207174335011699,-0.029217820238517003,-0.040987086235374004,-0.0976021316624207,0.041460518904231865,0.0070065676879990475,0.12730432094395044,0.000265891314864244,0.014101107787343187,0.06813105629130031,-0.12568527970777996,-0.04413399677742799,-0.03190495411014914,0.011541491472264185,0.021575335135714205,-0.0063404508243182535,0.07746443994896435,0.03364668539923481,0.07892177263063473,0.031615196662735726,0.025835506877734463,0.03626717280150957,-0.1473444345757309,-0.001007067388685425,-0.09257256949533509,0.041399471859908867,0.0817650042176401,-0.08689605394931765,-0.02674122579771655,-0.21712424854022186,-0.03614812374690102,0.06834995161025331,0.036677264419568756,-0.006289491592978518,0.006979043855267178,0.03407647279440274,0.11594921496800989,0.011118362096176101,-0.13958012020951596,